{"learner":{"attributes":{"scikit_learn":"{\"_estimator_type\": \"classifier\"}"},"feature_names":["Time","V1","V2","V3","V4","V5","V6","V7","V8","V9","V10","V11","V12","V13","V14","V15","V16","V17","V18","V19","V20","V21","V22","V23","V24","V25","V26","V27","V28","Amount"],"feature_types":["float","float","float","float","float","float","float","float","float","float","float","float","float","float","float","float","float","float","float","float","float","float","float","float","float","float","float","float","float","float"],"gradient_booster":{"model":{"cats":{"enc":[],"feature_segments":[],"sorted_idx":[]},"gbtree_model_param":{"num_parallel_tree":"1","num_trees":"100"},"iteration_indptr":[0,1,2,3,4,5,6,7,8,9,10,11,12,13,14,15,16,17,18,19,20,21,22,23,24,25,26,27,28,29,30,31,32,33,34,35,36,37,38,39,40,41,42,43,44,45,46,47,48,49,50,51,52,53,54,55,56,57,58,59,60,61,62,63,64,65,66,67,68,69,70,71,72,73,74,75,76,77,78,79,80,81,82,83,84,85,86,87,88,89,90,91,92,93,94,95,96,97,98,99,100],"tree_info":[0,0,0,0,0,0,0,0,0,0,0,0,0,0,0,0,0,0,0,0,0,0,0,0,0,0,0,0,0,0,0,0,0,0,0,0,0,0,0,0,0,0,0,0,0,0,0,0,0,0,0,0,0,0,0,0,0,0,0,0,0,0,0,0,0,0,0,0,0,0,0,0,0,0,0,0,0,0,0,0,0,0,0,0,0,0,0,0,0,0,0,0,0,0,0,0,0,0,0,0],"trees":[{"base_weights":[-0E0,1.8687719E0,-1.546927E0,-1.826161E0,1.9113119E0,-1.8383436E0,-8.73933E-1,-1.9878173E0,-9.711286E-1,1.9944248E0,1.1480685E0,-1.9359674E0,-1.4910426E0,2.7384635E-2,-1.4846106E0,1E-1,-1.9959308E-1,-1.9631337E-1,3.3333334E-1,1.9957302E0,-1.875E-1,1.4444828E0,-8.104823E-1,-1.3257468E0,-1.9555055E0,-1.8030623E0,-4.4101155E-1,7.2872055E-1,-1.0772882E0,-3.3989096E-1,-1.6033579E0,1.5925926E0,-1.8125E0,-9.5238096E-1,1.9963611E0,1.6529938E0,-1.7984791E0,-1.5371728E0,1.1031637E0,-1.9967638E-1,-3.7485716E-1,-1.788125E0,-1.9840921E0,-1.1733986E0,-1.9287931E0,-1.6827164E0,4.2563108E-1,1.1138921E0,-1.4739884E0,8.550255E-1,-1.5093831E0,3.5563257E-1,-1.838565E0,-8.597215E-1,-1.7786365E0,1.8800001E-1,-1.3333334E-1,-1.8666667E-1,-5E-2,-1.7575757E-1,1.3846155E-1,1.9965354E-1,-1.3333334E-1,-1.9694656E-1,1.71162E-1,-1.9918202E-1,7.1794875E-2,-1.980025E-1,7.564103E-2,-1.9338843E-1,1.6983607E-1,-1.6760258E-1,1.0821255E-1,-1.8629298E-1,-3.2051284E-2,-1.9893554E-1,-1.800945E-1,-1.8928845E-1,-3.5078537E-2,-1.9995812E-1,-1.6769773E-1,-1.9484188E-1,8.82353E-2,1.1755543E-1,-9.537445E-2,1.2955128E-1,-1.6300814E-1,-1.7687556E-1,-1.4229248E-2,1.4202899E-1,-1.902439E-1,1.2978585E-4,-1.7957573E-1,8.3639406E-2,-1.983773E-1,-1.9929701E-1,-9.411765E-2,-1.3507746E-1,6.0512822E-2,-1.5439539E-1,-1.9322854E-1],"categories":[],"categories_nodes":[],"categories_segments":[],"categories_sizes":[],"default_left":[0,0,0,0,0,0,0,0,0,0,0,0,0,0,0,0,0,0,0,0,0,0,0,0,0,0,0,0,0,0,0,0,0,0,0,0,0,0,0,0,0,0,0,0,0,0,0,0,0,0,0,0,0,0,0,0,0,0,0,0,0,0,0,0,0,0,0,0,0,0,0,0,0,0,0,0,0,0,0,0,0,0,0,0,0,0,0,0,0,0,0,0,0,0,0,0,0,0,0,0,0],"id":0,"left_children":[1,3,5,7,9,11,13,15,17,19,21,23,25,27,29,-1,-1,-1,31,33,-1,35,37,39,41,43,45,47,49,51,53,55,57,59,61,63,65,67,69,-1,71,73,75,77,79,81,83,85,87,89,91,93,95,97,99,-1,-1,-1,-1,-1,-1,-1,-1,-1,-1,-1,-1,-1,-1,-1,-1,-1,-1,-1,-1,-1,-1,-1,-1,-1,-1,-1,-1,-1,-1,-1,-1,-1,-1,-1,-1,-1,-1,-1,-1,-1,-1,-1,-1,-1,-1],"loss_changes":[3.2876956E5,8.0992812E3,1.2201422E4,7.91709E1,3.2278438E3,1.46925E3,1.0349758E4,1.3935059E1,1.23911E2,2.3567188E2,2.9054795E3,4.0145312E2,3.1219297E3,5.8853735E3,1.5231211E3,0E0,0E0,0E0,1.1637732E2,8.7296875E1,0E0,2.94137E3,9.170768E2,6.720891E2,1.535625E2,5.794238E2,2.351757E3,3.943829E3,2.4643726E3,1.1000863E3,1.3221445E3,2.5211853E1,2.0416641E-1,2.2191809E1,2.9265625E1,8.7058594E2,1.2938702E2,4.8650317E2,3.318233E2,0E0,8.312176E2,5.263672E2,2.3453125E1,7.246587E2,1.0579492E2,6.1391724E2,1.3329443E3,1.9733833E3,2.71386E2,8.440084E2,1.0431572E3,8.1284607E2,4.4473022E1,1.3955767E3,2.9331836E2,0E0,0E0,0E0,0E0,0E0,0E0,0E0,0E0,0E0,0E0,0E0,0E0,0E0,0E0,0E0,0E0,0E0,0E0,0E0,0E0,0E0,0E0,0E0,0E0,0E0,0E0,0E0,0E0,0E0,0E0,0E0,0E0,0E0,0E0,0E0,0E0,0E0,0E0,0E0,0E0,0E0,0E0,0E0,0E0,0E0,0E0],"parents":[2147483647,0,0,1,1,2,2,3,3,4,4,5,5,6,6,7,7,8,8,9,9,10,10,11,11,12,12,13,13,14,14,18,18,19,19,21,21,22,22,23,23,24,24,25,25,26,26,27,27,28,28,29,29,30,30,31,31,32,32,33,33,34,34,35,35,36,36,37,37,38,38,40,40,41,41,42,42,43,43,44,44,45,45,46,46,47,47,48,48,49,49,50,50,51,51,52,52,53,53,54,54],"right_children":[2,4,6,8,10,12,14,16,18,20,22,24,26,28,30,-1,-1,-1,32,34,-1,36,38,40,42,44,46,48,50,52,54,56,58,60,62,64,66,68,70,-1,72,74,76,78,80,82,84,86,88,90,92,94,96,98,100,-1,-1,-1,-1,-1,-1,-1,-1,-1,-1,-1,-1,-1,-1,-1,-1,-1,-1,-1,-1,-1,-1,-1,-1,-1,-1,-1,-1,-1,-1,-1,-1,-1,-1,-1,-1,-1,-1,-1,-1,-1,-1,-1,-1,-1,-1],"split_conditions":[-1.7873995E0,-4.7117257E-1,7.4612343E-1,1.3530377E0,-1.4534503E0,6.999981E-1,-2.2243978E-1,-3.7925584E0,1.9217016E0,5.685658E-1,4.9233523E-1,-7.2854453E-1,1.22231E-1,2.696623E-1,-5.5462277E-1,1E-1,-1.9959308E-1,-1.9631337E-1,-1.19669E-1,-4.3402752E-1,-1.875E-1,4.7311226E-1,2.3293002E-1,-2.160348E-1,-6.45906E-1,-2.6583976E-1,1.4337797E-1,1.2670584E0,-6.578457E-1,1.1793605E-1,-3.3895624E-1,5.953668E-1,1.2392718E0,2.846502E0,2.1170301E0,-1.6383514E-1,3.0078042E0,2.038963E0,2.09676E-2,-1.9967638E-1,-1.8069475E0,1.4682266E0,5.8135897E-1,2.125236E-1,-1.0067805E-1,2.9915373E0,-5.521364E-1,1.2621938E0,1.7080525E-1,-1.1508932E-1,-1.5638492E0,1.138189E0,4.7485492E-1,1.3077648E0,-7.9229094E-2,1.8800001E-1,-1.3333334E-1,-1.8666667E-1,-5E-2,-1.7575757E-1,1.3846155E-1,1.9965354E-1,-1.3333334E-1,-1.9694656E-1,1.71162E-1,-1.9918202E-1,7.1794875E-2,-1.980025E-1,7.564103E-2,-1.9338843E-1,1.6983607E-1,-1.6760258E-1,1.0821255E-1,-1.8629298E-1,-3.2051284E-2,-1.9893554E-1,-1.800945E-1,-1.8928845E-1,-3.5078537E-2,-1.9995812E-1,-1.6769773E-1,-1.9484188E-1,8.82353E-2,1.1755543E-1,-9.537445E-2,1.2955128E-1,-1.6300814E-1,-1.7687556E-1,-1.4229248E-2,1.4202899E-1,-1.902439E-1,1.2978585E-4,-1.7957573E-1,8.3639406E-2,-1.983773E-1,-1.9929701E-1,-9.411765E-2,-1.3507746E-1,6.0512822E-2,-1.5439539E-1,-1.9322854E-1],"split_indices":[14,4,4,0,12,7,12,10,1,10,15,20,4,14,8,0,0,0,26,11,0,26,29,4,14,5,18,3,8,13,29,24,11,17,7,27,4,4,21,0,1,11,21,15,29,7,10,1,11,13,19,2,1,11,14,0,0,0,0,0,0,0,0,0,0,0,0,0,0,0,0,0,0,0,0,0,0,0,0,0,0,0,0,0,0,0,0,0,0,0,0,0,0,0,0,0,0,0,0,0,0],"split_type":[0,0,0,0,0,0,0,0,0,0,0,0,0,0,0,0,0,0,0,0,0,0,0,0,0,0,0,0,0,0,0,0,0,0,0,0,0,0,0,0,0,0,0,0,0,0,0,0,0,0,0,0,0,0,0,0,0,0,0,0,0,0,0,0,0,0,0,0,0,0,0,0,0,0,0,0,0,0,0,0,0,0,0,0,0,0,0,0,0,0,0,0,0,0,0,0,0,0,0,0,0],"sum_hessian":[1.137255E5,5.150475E4,6.222075E4,5.8575E2,5.0919E4,4.341825E4,1.88025E4,4.915E2,9.425E1,4.591725E4,5.00175E3,3.3888E4,9.53025E3,7.5945E3,1.1208E4,1E0,4.905E2,5.325E1,4.1E1,4.590225E4,1.5E1,4.3445E3,6.5725E2,1.0535E3,3.28345E4,7.3465E3,2.18375E3,4.6455E3,2.949E3,1.05375E3,1.015425E4,2.6E1,1.5E1,9.5E0,4.589275E4,4.0825E3,2.62E2,4.765E2,1.8075E2,6.17E2,4.365E2,4.799E3,2.80355E4,1.2245E3,6.122E3,8.9725E2,1.2865E3,3.9545E3,6.91E2,5.3875E2,2.41025E3,7.2025E2,3.335E2,1.938E3,8.21625E3,2.4E1,2E0,1.4E1,1E0,7.25E0,2.25E0,4.589075E4,2E0,6.45E1,4.018E3,2.435E2,1.85E1,3.995E2,7.7E1,2.925E1,1.515E2,2.305E2,2.06E2,4.566E3,2.33E2,2.724275E4,7.9275E2,6.525E2,5.72E2,4.77325E3,1.34875E3,8.1325E2,8.4E1,8.335E2,4.53E2,3.7095E3,2.45E2,5.655E2,1.255E2,4.475E2,9.125E1,3.8425E2,2.026E3,5.98E2,1.2225E2,2.835E2,5E1,1.4515E3,4.865E2,3.25525E3,4.961E3],"tree_param":{"num_deleted":"0","num_feature":"30","num_nodes":"101","size_leaf_vector":"1"}},{"base_weights":[-2.8627843E-5,1.6989057E0,-1.404394E0,-1.6611148E0,1.7375871E0,-1.6703873E0,-7.91865E-1,-1.8077163E0,-8.8620406E-1,1.81359E0,1.0412992E0,-1.7597358E0,-1.3530633E0,1.5696261E-2,-1.3527783E0,6.457891E-2,-1.8153241E-1,-1.7878555E-1,2.9821745E-1,1.8147817E0,-1.7137706E-1,2.4995662E-1,1.6555048E0,-1.2033668E0,-1.7775792E0,-1.6518419E0,-4.3982854E-1,9.9308383E-1,-6.56395E-1,-3.557276E-1,-1.4656088E0,1.4476123E0,-1.6591531E-1,-8.664424E-1,1.8153574E0,7.891423E-1,-1.6063333E0,1.7213259E0,-1.9601369E-1,-1.5543092E0,3.2929015E-1,-1.631012E0,-1.8055109E0,-1.2013893E0,-1.8096005E0,-1.6443546E0,2.962887E-1,-1.4293231E0,1.2717245E0,1.7364389E-1,-1.3583094E0,4.0858254E-1,-1.5059552E0,-8.301963E-1,-1.6413789E0,1.714508E-1,-1.2482635E-1,-1.6144185E-1,1.2931876E-1,1.8155192E-1,-1.2482635E-1,-1.388173E-1,1.2227835E-1,-1.8661658E-1,1.5510136E-1,-2.05447E-1,1.7516641E-1,-1.7356992E-1,-2.3790225E-2,-1.789954E-1,1.3165893E-1,-1.6934066E-1,-3.612421E-2,-1.8105276E-1,-1.630671E-1,-4.7269415E-2,-1.6311328E-1,-1.8176523E-1,-1.260808E-1,-1.809615E-1,9.413299E-2,7.63418E-2,-1.7411196E-1,3.6216624E-2,-1.8781087E-1,1.3961136E-1,-1.6684666E-1,6.6859744E-2,-1.8180239E-1,8.934586E-3,-1.6939159E-1,8.064114E-2,-1.8025304E-1,-4.630336E-2,-1.698711E-1,-6.865429E-3,-1.5930764E-1,-1.4676863E-1,-1.7896517E-1],"categories":[],"categories_nodes":[],"categories_segments":[],"categories_sizes":[],"default_left":[0,0,0,0,0,0,0,0,0,0,0,0,0,0,0,0,0,0,0,0,0,0,0,0,0,0,0,0,0,0,0,0,0,0,0,0,0,0,0,0,0,0,0,0,0,0,0,0,0,0,0,0,0,0,0,0,0,0,0,0,0,0,0,0,0,0,0,0,0,0,0,0,0,0,0,0,0,0,0,0,0,0,0,0,0,0,0,0,0,0,0,0,0,0,0,0,0,0,0],"id":1,"left_children":[1,3,5,7,9,11,13,15,17,19,21,23,25,27,29,-1,-1,-1,31,33,-1,35,37,39,41,43,45,47,49,51,53,55,-1,57,59,61,63,65,-1,67,69,71,73,75,77,79,81,83,85,87,89,91,93,95,97,-1,-1,-1,-1,-1,-1,-1,-1,-1,-1,-1,-1,-1,-1,-1,-1,-1,-1,-1,-1,-1,-1,-1,-1,-1,-1,-1,-1,-1,-1,-1,-1,-1,-1,-1,-1,-1,-1,-1,-1,-1,-1,-1,-1],"loss_changes":[2.689288E5,6.6324062E3,1.0052484E4,6.4406494E1,2.66675E3,1.2174219E3,8.463845E3,1.0274658E1,1.01344826E2,1.9423438E2,2.4128394E3,3.3110156E2,2.57958E3,5.032246E3,1.2399238E3,0E0,0E0,0E0,9.6124626E1,7.1703125E1,0E0,2.174031E3,6.685952E2,5.63224E2,1.3019531E2,5.041582E2,2.068715E3,2.1086929E3,2.6449023E3,9.872334E2,1.1049121E3,2.1409058E1,0E0,1.8941595E1,2.478125E1,1.5906366E3,4.0402258E2,3.1813086E2,0E0,2.0289478E2,4.1191632E2,4.1263867E2,2.1E1,5.7890405E2,2.1015625E1,3.7984644E2,1.3800455E3,2.5994714E2,1.0263364E3,2.052346E3,1.1951201E3,5.952384E2,8.932214E1,1.2479841E3,1.9716797E2,0E0,0E0,0E0,0E0,0E0,0E0,0E0,0E0,0E0,0E0,0E0,0E0,0E0,0E0,0E0,0E0,0E0,0E0,0E0,0E0,0E0,0E0,0E0,0E0,0E0,0E0,0E0,0E0,0E0,0E0,0E0,0E0,0E0,0E0,0E0,0E0,0E0,0E0,0E0,0E0,0E0,0E0,0E0,0E0],"parents":[2147483647,0,0,1,1,2,2,3,3,4,4,5,5,6,6,7,7,8,8,9,9,10,10,11,11,12,12,13,13,14,14,18,18,19,19,21,21,22,22,23,23,24,24,25,25,26,26,27,27,28,28,29,29,30,30,31,31,33,33,34,34,35,35,36,36,37,37,39,39,40,40,41,41,42,42,43,43,44,44,45,45,46,46,47,47,48,48,49,49,50,50,51,51,52,52,53,53,54,54],"right_children":[2,4,6,8,10,12,14,16,18,20,22,24,26,28,30,-1,-1,-1,32,34,-1,36,38,40,42,44,46,48,50,52,54,56,-1,58,60,62,64,66,-1,68,70,72,74,76,78,80,82,84,86,88,90,92,94,96,98,-1,-1,-1,-1,-1,-1,-1,-1,-1,-1,-1,-1,-1,-1,-1,-1,-1,-1,-1,-1,-1,-1,-1,-1,-1,-1,-1,-1,-1,-1,-1,-1,-1,-1,-1,-1,-1,-1,-1,-1,-1,-1,-1,-1],"split_conditions":[-1.7873995E0,-4.7117257E-1,7.4612343E-1,1.3530377E0,-1.4534503E0,6.999981E-1,-2.0802918E-1,-3.7173727E0,1.9217016E0,5.685658E-1,1.8121799E0,-7.2854453E-1,7.692473E-2,-2.2675277E-1,-5.059457E-1,6.457891E-2,-1.8153241E-1,-1.7878555E-1,-1.19669E-1,-4.3402752E-1,-1.7137706E-1,-1.19669E-1,6.4941305E-1,-9.6686447E-1,-6.0102785E-1,-8.7354976E-1,6.861706E-2,-1.034415E0,-1.24737814E-1,-4.337708E-2,-3.3343887E-1,5.953668E-1,-1.6591531E-1,2.846502E0,2.1170301E0,-3.788783E-1,2.3669908E0,-1.0637832E0,-1.9601369E-1,6.263017E-1,-2.160348E-1,1.4682266E0,5.8135897E-1,-6.05767E-2,2.9915373E0,1.4781014E0,6.957691E-2,-3.743844E-1,1.650027E0,4.6965513E-1,-1.5638492E0,1.138189E0,-3.484734E-1,-7.7406526E-1,1.7601639E-2,1.714508E-1,-1.2482635E-1,-1.6144185E-1,1.2931876E-1,1.8155192E-1,-1.2482635E-1,-1.388173E-1,1.2227835E-1,-1.8661658E-1,1.5510136E-1,-2.05447E-1,1.7516641E-1,-1.7356992E-1,-2.3790225E-2,-1.789954E-1,1.3165893E-1,-1.6934066E-1,-3.612421E-2,-1.8105276E-1,-1.630671E-1,-4.7269415E-2,-1.6311328E-1,-1.8176523E-1,-1.260808E-1,-1.809615E-1,9.413299E-2,7.63418E-2,-1.7411196E-1,3.6216624E-2,-1.8781087E-1,1.3961136E-1,-1.6684666E-1,6.6859744E-2,-1.8180239E-1,8.934586E-3,-1.6939159E-1,8.064114E-2,-1.8025304E-1,-4.630336E-2,-1.698711E-1,-6.865429E-3,-1.5930764E-1,-1.4676863E-1,-1.7896517E-1],"split_indices":[14,4,4,0,12,7,12,10,1,10,4,20,4,14,8,0,0,0,26,11,0,26,10,1,14,10,18,11,8,13,29,24,0,17,7,0,21,22,0,29,4,11,21,5,7,22,13,21,3,13,19,2,29,0,14,0,0,0,0,0,0,0,0,0,0,0,0,0,0,0,0,0,0,0,0,0,0,0,0,0,0,0,0,0,0,0,0,0,0,0,0,0,0,0,0,0,0,0,0],"split_type":[0,0,0,0,0,0,0,0,0,0,0,0,0,0,0,0,0,0,0,0,0,0,0,0,0,0,0,0,0,0,0,0,0,0,0,0,0,0,0,0,0,0,0,0,0,0,0,0,0,0,0,0,0,0,0,0,0,0,0,0,0,0,0,0,0,0,0,0,0,0,0,0,0,0,0,0,0,0,0,0,0,0,0,0,0,0,0,0,0,0,0,0,0,0,0,0,0,0,0],"sum_hessian":[1.1271271E5,5.100685E4,6.1705863E4,5.800434E2,5.0426805E4,4.3021766E4,1.86841E4,4.866447E2,9.339867E1,4.5462746E4,4.964061E3,3.356607E4,9.455694E3,7.6586787E3,1.1025422E4,1.2450308E0,4.853997E2,5.2740227E1,4.065844E1,4.5447875E4,1.4868933E1,2.1698425E3,2.7942185E3,1.0451775E3,3.2520893E4,7.124122E3,2.3315728E3,3.1203855E3,4.538293E3,1.1212656E3,9.904156E3,2.5780315E1,1.4878124E1,9.433548E0,4.543844E4,1.6818889E3,4.8795355E2,2.7447751E3,4.944337E1,8.5043396E2,1.9474356E2,5.2150586E3,2.7305834E4,1.8500996E3,5.2740225E3,8.8393506E2,1.4476377E3,3.2147354E2,2.798912E3,2.079712E3,2.458581E3,6.740281E2,4.4723746E2,2.1473105E3,7.7568457E3,2.3789179E1,1.9911375E0,7.194298E0,2.2392504E0,4.5436453E4,1.9911375E0,2.7897125E2,1.4029176E3,4.5122882E2,3.6724724E1,2.1346575E1,2.7234287E3,7.4716266E2,1.03271324E2,6.163361E1,1.3310994E2,4.9704834E3,2.4457556E2,2.65351E4,7.707336E2,6.871064E2,1.1629933E3,5.1954834E3,7.853876E1,8.311156E2,5.2819466E1,1.1781428E3,2.6949484E2,6.44382E1,2.5703534E2,2.6858098E3,1.1310211E2,1.6662844E3,4.1342752E2,4.6283835E2,1.9957427E3,5.717862E2,1.0224189E2,7.0296165E1,3.769413E2,1.0751431E3,1.0721674E3,3.577231E3,4.1796147E3],"tree_param":{"num_deleted":"0","num_feature":"30","num_nodes":"99","size_leaf_vector":"1"}},{"base_weights":[-3.5185454E-5,1.5703144E0,-1.2927798E0,-1.5366205E0,1.6060702E0,-1.541615E0,-7.2462684E-1,-1.672267E0,-8.208865E-1,1.6785307E0,9.5625323E-1,-1.6275749E0,-1.248955E0,3.2147285E-2,-1.2287768E0,6.1080236E-2,-1.6795404E-1,-1.4406168E0,6.4281756E-1,1.6791384E0,-1.734636E-1,1.6869837E-1,1.5007849E0,-1.145773E0,-1.6447929E0,-6.2460196E-1,-1.6136733E0,6.273214E-1,-9.1233325E-1,-6.335476E-1,-1.4153901E0,-1.5779145E0,-3.757987E-1,-1.4798376E-1,1.4176922E0,-1.4200267E-1,1.679426E0,-1.6948813E0,7.093768E-1,1.5618902E0,-1.7808177E-1,7.168586E-1,-1.3873988E0,-1.5076233E0,-1.6710526E0,-1.2547424E0,7.103867E-2,-1.6828982E0,-1.3546425E-1,9.488045E-1,-1.2452185E0,8.28739E-1,-1.273292E0,1.4841205E-1,-1.5616237E0,-1.0289476E0,-1.5694675E0,-1.6578366E-1,-9.990667E-2,1.2632334E-1,-1.4074433E-1,-2.6315723E-2,1.5330587E-1,1.2898837E-1,1.6810957E-1,1.4968811E-1,-1.7925493E-1,-1.8943366E-1,9.708517E-2,-1.9392984E-1,1.5770043E-1,-1.7064615E-1,1.6887033E-1,-1.6904597E-1,-5.322359E-2,-1.5632316E-1,-3.791345E-2,-1.6756544E-1,-1.5553305E-1,-1.5387315E-1,3.2824513E-2,5.4257315E-2,-1.6513255E-1,-1.3382198E-1,-1.7005987E-1,1.4142832E-1,-1.7359178E-1,1.1036742E-1,-1.4498883E-1,7.2869204E-2,-1.4211762E-1,1.2755069E-1,-1.6788194E-1,8.497055E-4,-1.5245225E-1,9.001678E-2,-1.7443441E-1,-1.7144886E-1,-1.23008154E-1,-1.55904E-1,-2.2537256E-2,-1.5905151E-1,1.2884475E-1],"categories":[],"categories_nodes":[],"categories_segments":[],"categories_sizes":[],"default_left":[0,0,0,0,0,0,0,0,0,0,0,0,0,0,0,0,0,0,0,0,0,0,0,0,0,0,0,0,0,0,0,0,0,0,0,0,0,0,0,0,0,0,0,0,0,0,0,0,0,0,0,0,0,0,0,0,0,0,0,0,0,0,0,0,0,0,0,0,0,0,0,0,0,0,0,0,0,0,0,0,0,0,0,0,0,0,0,0,0,0,0,0,0,0,0,0,0,0,0,0,0,0,0],"id":2,"left_children":[1,3,5,7,9,11,13,15,17,19,21,23,25,27,29,-1,-1,31,33,35,-1,37,39,41,43,45,47,49,51,53,55,57,59,-1,61,-1,63,65,67,69,-1,71,73,75,77,79,81,83,85,87,89,91,93,95,97,99,101,-1,-1,-1,-1,-1,-1,-1,-1,-1,-1,-1,-1,-1,-1,-1,-1,-1,-1,-1,-1,-1,-1,-1,-1,-1,-1,-1,-1,-1,-1,-1,-1,-1,-1,-1,-1,-1,-1,-1,-1,-1,-1,-1,-1,-1,-1],"loss_changes":[2.2358536E5,5.5269297E3,8.539156E3,5.3607788E1,2.3133281E3,1.0547656E3,7.0204365E3,8.915527E0,8.4552155E1,9.466406E1,2.1159238E3,2.6746094E2,2.171751E3,4.136767E3,1.2258086E3,0E0,0E0,8.920975E0,4.8339733E1,4.1789062E1,0E0,2.0348147E3,5.877632E2,5.0665845E2,1.1039844E2,1.5431277E3,6.1605176E2,2.7187456E3,1.7888638E3,1.9145026E3,4.9895117E2,9.960022E-1,1.6565174E1,0E0,4.49625E0,0E0,2.6601562E1,1.4426392E2,1.0673718E3,1.5463818E2,0E0,3.0827383E2,2.5693872E2,3.1610547E2,1.13984375E1,8.308513E2,1.3604739E3,3.2823242E1,6.733947E2,1.4330815E3,2.3092932E2,5.5008563E2,7.589158E2,2.0398427E3,5.902661E1,1.0216885E3,3.6347754E2,0E0,0E0,0E0,0E0,0E0,0E0,0E0,0E0,0E0,0E0,0E0,0E0,0E0,0E0,0E0,0E0,0E0,0E0,0E0,0E0,0E0,0E0,0E0,0E0,0E0,0E0,0E0,0E0,0E0,0E0,0E0,0E0,0E0,0E0,0E0,0E0,0E0,0E0,0E0,0E0,0E0,0E0,0E0,0E0,0E0,0E0],"parents":[2147483647,0,0,1,1,2,2,3,3,4,4,5,5,6,6,7,7,8,8,9,9,10,10,11,11,12,12,13,13,14,14,17,17,18,18,19,19,21,21,22,22,23,23,24,24,25,25,26,26,27,27,28,28,29,29,30,30,31,31,32,32,34,34,36,36,37,37,38,38,39,39,41,41,42,42,43,43,44,44,45,45,46,46,47,47,48,48,49,49,50,50,51,51,52,52,53,53,54,54,55,55,56,56],"right_children":[2,4,6,8,10,12,14,16,18,20,22,24,26,28,30,-1,-1,32,34,36,-1,38,40,42,44,46,48,50,52,54,56,58,60,-1,62,-1,64,66,68,70,-1,72,74,76,78,80,82,84,86,88,90,92,94,96,98,100,102,-1,-1,-1,-1,-1,-1,-1,-1,-1,-1,-1,-1,-1,-1,-1,-1,-1,-1,-1,-1,-1,-1,-1,-1,-1,-1,-1,-1,-1,-1,-1,-1,-1,-1,-1,-1,-1,-1,-1,-1,-1,-1,-1,-1,-1,-1],"split_conditions":[-1.7873995E0,-4.7117257E-1,7.4612343E-1,1.3530377E0,-1.8619348E0,6.822981E-1,-2.3586337E-1,-3.7173727E0,-1.8604946E0,3.2508346E-1,1.8121799E0,-6.8850857E-1,-1.8263522E-1,2.696623E-1,-4.5973474E-1,6.1080236E-2,-1.6795404E-1,-5.637045E-1,1.1034553E0,-6.9171286E-1,-1.734636E-1,-3.4071538E-1,6.4941305E-1,-1.6269091E0,-6.0102785E-1,5.6859426E-2,8.8349646E-1,1.2670584E0,-7.647039E-1,-8.283914E-2,-8.7660074E-2,-6.644417E-1,-1.3049237E0,-1.4798376E-1,-3.2243693E-1,-1.4200267E-1,3.3284843E-1,-2.312221E0,-2.0808254E-1,-6.9171286E-1,-1.7808177E-1,8.3610064E-1,5.6859426E-2,1.4682266E0,5.1408064E-1,2.1170301E0,6.957691E-2,-1.2694801E0,-9.759147E-1,1.2621938E0,-7.2854453E-1,-1.1508932E-1,-1.5638492E0,2.0626298E-1,2.6015547E-1,3.689568E-1,5.6819067E0,-1.6578366E-1,-9.990667E-2,1.2632334E-1,-1.4074433E-1,-2.6315723E-2,1.5330587E-1,1.2898837E-1,1.6810957E-1,1.4968811E-1,-1.7925493E-1,-1.8943366E-1,9.708517E-2,-1.9392984E-1,1.5770043E-1,-1.7064615E-1,1.6887033E-1,-1.6904597E-1,-5.322359E-2,-1.5632316E-1,-3.791345E-2,-1.6756544E-1,-1.5553305E-1,-1.5387315E-1,3.2824513E-2,5.4257315E-2,-1.6513255E-1,-1.3382198E-1,-1.7005987E-1,1.4142832E-1,-1.7359178E-1,1.1036742E-1,-1.4498883E-1,7.2869204E-2,-1.4211762E-1,1.2755069E-1,-1.6788194E-1,8.497055E-4,-1.5245225E-1,9.001678E-2,-1.7443441E-1,-1.7144886E-1,-1.23008154E-1,-1.55904E-1,-2.2537256E-2,-1.5905151E-1,1.2884475E-1],"split_indices":[14,4,4,0,10,7,12,10,14,12,4,20,26,14,14,0,0,4,17,11,0,29,10,13,14,4,16,3,8,13,21,4,3,0,12,0,11,22,21,11,0,5,4,11,21,7,13,14,13,1,20,13,19,8,16,25,4,0,0,0,0,0,0,0,0,0,0,0,0,0,0,0,0,0,0,0,0,0,0,0,0,0,0,0,0,0,0,0,0,0,0,0,0,0,0,0,0,0,0,0,0,0,0],"split_type":[0,0,0,0,0,0,0,0,0,0,0,0,0,0,0,0,0,0,0,0,0,0,0,0,0,0,0,0,0,0,0,0,0,0,0,0,0,0,0,0,0,0,0,0,0,0,0,0,0,0,0,0,0,0,0,0,0,0,0,0,0,0,0,0,0,0,0,0,0,0,0,0,0,0,0,0,0,0,0,0,0,0,0,0,0,0,0,0,0,0,0,0,0,0,0,0,0,0,0,0,0,0,0],"sum_hessian":[1.1013526E5,4.9728188E4,6.040707E4,5.653018E2,4.9162887E4,4.200732E4,1.8399752E4,4.741114E2,9.119041E1,4.4229332E4,4.9335547E3,3.2466676E4,9.540645E3,7.35707E3,1.1042682E4,1.242123E0,4.7286926E2,6.407634E1,2.7114067E1,4.4221965E4,7.3659945E0,2.0172788E3,2.9162756E3,1.1225488E3,3.1344127E4,3.519096E3,6.0215483E3,4.513302E3,2.8437678E3,2.6367612E3,8.405921E3,5.6331142E1,7.745199E0,7.0077066E0,2.0106361E1,3.645419E0,4.421832E4,4.5317303E2,1.5641058E3,2.86348E3,5.2795593E1,1.2867319E2,9.938757E2,5.045731E3,2.6298395E4,1.8460566E3,1.6730392E3,5.7520405E3,2.695076E2,3.8524036E3,6.6089844E2,4.8810645E2,2.3556614E3,1.4314874E3,1.2052738E3,2.3983293E3,6.0075913E3,4.785916E1,8.471983E0,2.9051454E0,4.840054E0,1.2091033E0,1.8897257E1,1.9201895E2,4.40263E4,1.3029992E1,4.4014304E2,1.4216919E2,1.4219366E3,1.1760826E1,2.8517192E3,3.6615524E1,9.205766E1,7.3309686E2,2.6077875E2,4.8084033E3,2.373278E2,2.5279678E4,1.0187179E3,1.5652734E3,2.8078323E2,1.3139907E3,3.5904843E2,2.847028E2,5.467338E3,1.3698192E2,1.3252568E2,3.619268E3,2.3313538E2,5.3834675E1,6.070638E2,4.147096E2,7.339685E1,3.8620303E2,1.9694584E3,1.0249336E3,4.0655383E2,8.220693E2,3.832045E2,1.4444996E3,9.538298E2,5.9641113E3,4.348003E1],"tree_param":{"num_deleted":"0","num_feature":"30","num_nodes":"103","size_leaf_vector":"1"}},{"base_weights":[-4.247379E-5,1.4694091E0,-1.2025062E0,-8.300243E-1,1.5117481E0,-1.4393239E0,-6.6834855E-1,4.0165606E-1,-1.3728027E0,1.5264379E0,-1.0140128E0,-1.5224215E0,-1.1587335E0,-4.6205286E-2,-1.1964272E0,1.267938E0,-1.6716553E-1,-1.5864369E0,-6.7547125E-1,1.5367792E0,-1.6844106E-1,-1.6697948E0,1.2529311E0,-1.061519E0,-1.5390579E0,-5.7343966E-1,-1.5065616E0,9.6021676E-1,-5.4869616E-1,-2.242914E-1,-1.3046927E0,1.5047579E0,-1.5823579E-1,-1.6065311E-1,-1.2485043E0,2.6611945E-1,-1.59534E0,1.5731418E0,1.14472E0,-1.6836034E-1,4.333289E-2,-1.7198104E-1,1.5380558E0,-1.2605188E0,9.046852E-1,-1.4033223E0,-1.5652014E0,-1.1092749E0,1.3453497E-1,-1.5727121E0,-1.251484E-1,-1.5537504E0,1.1288769E0,1.5259482E-1,-1.1520144E0,3.8136473E-1,-1.4545485E0,-1.3502803E0,8.304008E-1,1.5761352E-1,-1.3457948E-1,-1.5505998E-1,3.7979975E-2,-1.561404E-1,1.2862504E-1,-5.0968792E-2,-1.6064766E-1,-1.3744861E-1,1.5734695E-1,1.2684566E-1,-1.290748E-1,-1.2207369E-1,1.6463034E-1,-1.5923497E-1,-3.6069896E-2,-1.5555201E-1,1.7108625E-1,-1.4573036E-1,-3.4202546E-2,-1.5698329E-1,-1.4493836E-1,2.2838062E-2,-1.607209E-1,-1.6454011E-1,5.101341E-2,-1.2354984E-1,-1.5902542E-1,1.4486969E-1,-1.456732E-1,-1.4298371E-2,-1.664174E-1,1.2968253E-1,-3.792837E-2,5.3773846E-2,-1.6735493E-1,1.8061294E-3,-1.4395273E-1,-1.9018976E-1,7.234385E-2,-5.9447076E-2,-1.602517E-1,-1.1603389E-1,-1.5822196E-1,1.3164158E-1,-1.6966096E-1],"categories":[],"categories_nodes":[],"categories_segments":[],"categories_sizes":[],"default_left":[0,0,0,0,0,0,0,0,0,0,0,0,0,0,0,0,0,0,0,0,0,0,0,0,0,0,0,0,0,0,0,0,0,0,0,0,0,0,0,0,0,0,0,0,0,0,0,0,0,0,0,0,0,0,0,0,0,0,0,0,0,0,0,0,0,0,0,0,0,0,0,0,0,0,0,0,0,0,0,0,0,0,0,0,0,0,0,0,0,0,0,0,0,0,0,0,0,0,0,0,0,0,0,0,0],"id":3,"left_children":[1,3,5,7,9,11,13,15,17,19,21,23,25,27,29,31,-1,33,35,37,-1,39,41,43,45,47,49,51,53,55,57,59,-1,-1,61,63,65,67,69,-1,-1,-1,71,73,75,77,79,81,83,85,87,89,91,93,95,97,99,101,103,-1,-1,-1,-1,-1,-1,-1,-1,-1,-1,-1,-1,-1,-1,-1,-1,-1,-1,-1,-1,-1,-1,-1,-1,-1,-1,-1,-1,-1,-1,-1,-1,-1,-1,-1,-1,-1,-1,-1,-1,-1,-1,-1,-1,-1,-1],"loss_changes":[1.8815508E5,4.66675E3,7.4071016E3,5.80217E2,1.7474844E3,9.4425E2,5.9105107E3,4.7987125E2,8.862207E1,1.5560234E3,4.074909E2,2.3836719E2,1.8872803E3,4.1780615E3,1.0238584E3,1.2940286E2,0E0,1.1187744E0,1.2422799E2,6.630469E2,0E0,6.8845825E0,5.4990967E1,4.290503E2,1.0499219E2,1.3122712E3,5.3135156E2,1.1683093E3,2.3316064E3,7.280189E2,8.533203E2,3.757596E1,0E0,0E0,1.5499836E1,1.3529099E2,5.708313E-2,4.3367188E1,1.1955659E3,0E0,0E0,0E0,1.8996063E1,2.960835E2,2.0317075E2,2.7954395E2,1.1308594E1,1.311749E3,9.9760126E2,3.0871094E1,5.614599E2,2.6774109E1,6.537024E2,1.7937833E3,9.965415E2,5.129806E2,4.006311E1,3.758369E2,2.2778981E2,0E0,0E0,0E0,0E0,0E0,0E0,0E0,0E0,0E0,0E0,0E0,0E0,0E0,0E0,0E0,0E0,0E0,0E0,0E0,0E0,0E0,0E0,0E0,0E0,0E0,0E0,0E0,0E0,0E0,0E0,0E0,0E0,0E0,0E0,0E0,0E0,0E0,0E0,0E0,0E0,0E0,0E0,0E0,0E0,0E0,0E0],"parents":[2147483647,0,0,1,1,2,2,3,3,4,4,5,5,6,6,7,7,8,8,9,9,10,10,11,11,12,12,13,13,14,14,15,15,17,17,18,18,19,19,21,21,22,22,23,23,24,24,25,25,26,26,27,27,28,28,29,29,30,30,31,31,34,34,35,35,36,36,37,37,38,38,42,42,43,43,44,44,45,45,46,46,47,47,48,48,49,49,50,50,51,51,52,52,53,53,54,54,55,55,56,56,57,57,58,58],"right_children":[2,4,6,8,10,12,14,16,18,20,22,24,26,28,30,32,-1,34,36,38,-1,40,42,44,46,48,50,52,54,56,58,60,-1,-1,62,64,66,68,70,-1,-1,-1,72,74,76,78,80,82,84,86,88,90,92,94,96,98,100,102,104,-1,-1,-1,-1,-1,-1,-1,-1,-1,-1,-1,-1,-1,-1,-1,-1,-1,-1,-1,-1,-1,-1,-1,-1,-1,-1,-1,-1,-1,-1,-1,-1,-1,-1,-1,-1,-1,-1,-1,-1,-1,-1,-1,-1,-1,-1],"split_conditions":[-1.7873995E0,-1.8707135E-1,7.4612343E-1,-1.406378E0,1.9532697E0,6.822981E-1,-9.7759746E-2,2.2629368E-1,1.2509975E0,6.4941305E-1,-2.3188747E-1,-6.8850857E-1,-1.8263522E-1,-4.9794272E-1,-5.284332E-1,9.2635965E-1,-1.6716553E-1,1.1843404E0,-1.19669E-1,-1.2757167E0,-1.6844106E-1,2.4921196E0,-5.717557E-1,1.3244075E0,-6.0102785E-1,-5.8223367E-2,8.8349646E-1,-1.0838003E0,-1.1281476E-1,9.769387E-2,1.9704821E0,-8.571838E-1,-1.5823579E-1,-1.6065311E-1,-3.034858E-1,4.7485492E-1,-1.1502436E-1,-6.9171286E-1,8.25904E-1,-1.6836034E-1,4.333289E-2,-1.7198104E-1,-1.8111527E-1,7.692473E-2,7.82556E-1,1.4682266E0,5.1408064E-1,-2.566302E-1,-3.495715E-1,-1.2694801E0,-1.2443585E0,-8.207131E-1,4.6091878E-1,8.4450936E-1,-1.5311362E0,2.1643179E-2,-3.484734E-1,1.2742037E-1,-1.3628297E-1,1.5761352E-1,-1.3457948E-1,-1.5505998E-1,3.7979975E-2,-1.561404E-1,1.2862504E-1,-5.0968792E-2,-1.6064766E-1,-1.3744861E-1,1.5734695E-1,1.2684566E-1,-1.290748E-1,-1.2207369E-1,1.6463034E-1,-1.5923497E-1,-3.6069896E-2,-1.5555201E-1,1.7108625E-1,-1.4573036E-1,-3.4202546E-2,-1.5698329E-1,-1.4493836E-1,2.2838062E-2,-1.607209E-1,-1.6454011E-1,5.101341E-2,-1.2354984E-1,-1.5902542E-1,1.4486969E-1,-1.456732E-1,-1.4298371E-2,-1.664174E-1,1.2968253E-1,-3.792837E-2,5.3773846E-2,-1.6735493E-1,1.8061294E-3,-1.4395273E-1,-1.9018976E-1,7.234385E-2,-5.9447076E-2,-1.602517E-1,-1.1603389E-1,-1.5822196E-1,1.3164158E-1,-1.6966096E-1],"split_indices":[14,4,4,10,1,7,12,16,0,10,29,20,26,14,8,5,0,0,26,12,0,11,6,22,14,17,16,11,8,13,11,3,0,0,4,1,26,11,15,0,0,0,21,4,21,11,21,2,18,14,13,22,0,1,19,17,29,14,13,0,0,0,0,0,0,0,0,0,0,0,0,0,0,0,0,0,0,0,0,0,0,0,0,0,0,0,0,0,0,0,0,0,0,0,0,0,0,0,0,0,0,0,0,0,0],"split_type":[0,0,0,0,0,0,0,0,0,0,0,0,0,0,0,0,0,0,0,0,0,0,0,0,0,0,0,0,0,0,0,0,0,0,0,0,0,0,0,0,0,0,0,0,0,0,0,0,0,0,0,0,0,0,0,0,0,0,0,0,0,0,0,0,0,0,0,0,0,0,0,0,0,0,0,0,0,0,0,0,0,0,0,0,0,0,0,0,0,0,0,0,0,0,0,0,0,0,0,0,0,0,0,0,0],"sum_hessian":[1.06483055E5,4.7921332E4,5.8561723E4,8.6607526E2,4.7055258E4,4.0572355E4,1.7989367E4,2.6499805E2,6.010772E2,4.678356E4,2.7169815E2,3.129873E4,9.273624E3,8.259603E3,9.729765E3,1.8717854E2,7.781948E1,4.5914026E2,1.41937E2,4.6633887E4,1.4967331E2,2.1094061E2,6.0757526E1,1.0926313E3,3.02061E4,3.4577996E3,5.815824E3,2.7502695E3,5.509333E3,9.753143E2,8.75445E3,1.732555E2,1.3923051E1,4.2982755E2,2.9312695E1,7.049155E1,7.144544E1,4.2673043E4,3.9608442E3,2.0976283E2,1.177785E0,4.8770514E0,5.5880474E1,9.925355E2,1.0009575E2,4.8871333E3,2.5318967E4,1.9678516E3,1.4899479E3,5.549922E3,2.6590262E2,1.7239664E2,2.5778728E3,2.5481436E3,2.9611895E3,6.540267E2,3.2128763E2,8.571797E3,1.8265315E2,1.6945935E2,3.7961473E0,2.4765692E1,4.5470014E0,2.5062498E1,4.5429047E1,1.2003057E0,7.024514E1,4.275401E0,4.2668766E4,3.7697947E3,1.9104948E2,1.7217896E0,5.4158684E1,7.2456476E2,2.6797076E2,2.4475266E1,7.562048E1,4.650233E3,2.369003E2,2.4333346E4,9.856208E2,5.339592E2,1.4338923E3,2.5903235E2,1.2309155E3,2.7796408E2,5.2719575E3,1.21825195E2,1.4407741E2,1.2680906E1,1.5971573E2,2.3196929E3,2.5818002E2,2.1049119E3,4.432317E2,5.842867E2,2.3769028E3,8.462365E1,5.69403E2,4.7897514E1,2.733901E2,4.715858E3,3.855939E3,1.5359213E2,2.9061014E1],"tree_param":{"num_deleted":"0","num_feature":"30","num_nodes":"105","size_leaf_vector":"1"}},{"base_weights":[-4.6178706E-5,1.3881527E0,-1.126853E0,-6.604495E-1,1.4306903E0,-1.2615274E0,-2.6266375E-1,-1.3720416E0,3.3011734E-1,1.4446828E0,-9.8869115E-1,-7.781274E-1,-1.3586315E0,4.7959876E-1,-7.971955E-1,-1.5213102E0,-8.1532913E-1,1.2096102E0,-1.0777223E0,1.4541576E0,-1.5585768E0,-1.5680515E0,1.2179676E0,-1.2521768E0,1.7474042E-2,-1.3923268E0,3.3069916E-2,8.184889E-1,-7.78615E-1,8.651194E-2,-1.249171E0,1.1474516E-1,-1.5449455E0,5.91942E-1,-1.4712076E-1,1.3902798E0,-1.54061E-1,-5.67405E-2,-1.5582828E-1,1.4905562E0,1.0894594E0,-1.5836811E-1,8.139754E-2,-1.5813955E0,4.1221734E-2,1.5057402E0,-1.3204442E-1,-1.4919096E0,-7.78923E-1,6.7627645E-1,-1.1339815E0,-5.197993E-1,-1.416822E0,9.024857E-1,-1.5195051E0,1.1460724E0,-1.03103794E-1,-1.518066E0,1.1606172E0,7.0782006E-1,-1.2485402E0,-7.1156305E-1,-1.4009033E0,-1.488779E-1,-1.6921681E-1,-1.4984688E-1,1.3110544E-1,1.494597E-1,-1.5392426E-1,-1.451029E-1,9.346098E-2,1.490848E-1,-1.7642286E-1,1.3123068E-1,-3.6840957E-2,-1.5917455E-1,1.0530976E-2,1.4521646E-3,1.5423894E-1,-1.1861094E-1,-1.5152088E-1,-1.4508468E-1,-2.3966124E-2,1.1951456E-1,-9.65851E-2,1.4600034E-1,-1.3856176E-1,3.5949193E-2,-1.5099232E-1,-1.4458288E-1,-1.1513869E-1,-1.0766449E-1,1.373773E-1,1.0094233E-1,-1.592658E-1,1.2797223E-1,-5.8264066E-2,8.1793286E-2,-1.4639671E-1,-4.020659E-2,-1.5928434E-1,1.537509E-1,-1.7927103E-1,-1.20883904E-1,1.1656159E-1,-1.5321444E-1,1.8079175E-1,-1.1503891E-1,3.5643812E-2,-1.4436185E-1,1.12417065E-1],"categories":[],"categories_nodes":[],"categories_segments":[],"categories_sizes":[],"default_left":[0,0,0,0,0,0,0,0,0,0,0,0,0,0,0,0,0,0,0,0,0,0,0,0,0,0,0,0,0,0,0,0,0,0,0,0,0,0,0,0,0,0,0,0,0,0,0,0,0,0,0,0,0,0,0,0,0,0,0,0,0,0,0,0,0,0,0,0,0,0,0,0,0,0,0,0,0,0,0,0,0,0,0,0,0,0,0,0,0,0,0,0,0,0,0,0,0,0,0,0,0,0,0,0,0,0,0,0,0,0,0],"id":4,"left_children":[1,3,5,7,9,11,13,15,17,19,21,23,25,27,29,31,33,35,37,39,41,43,45,47,49,51,53,55,57,59,61,-1,63,65,-1,67,-1,69,-1,71,73,-1,-1,75,-1,77,-1,79,81,83,85,87,89,91,93,95,97,99,101,103,105,107,109,-1,-1,-1,-1,-1,-1,-1,-1,-1,-1,-1,-1,-1,-1,-1,-1,-1,-1,-1,-1,-1,-1,-1,-1,-1,-1,-1,-1,-1,-1,-1,-1,-1,-1,-1,-1,-1,-1,-1,-1,-1,-1,-1,-1,-1,-1,-1,-1],"loss_changes":[1.5978419E5,3.9890938E3,6.5617188E3,6.5715063E2,1.5192656E3,2.288711E3,3.0170508E3,4.3829712E1,4.8454596E2,1.2707422E3,3.3227362E2,3.078398E3,1.9048359E3,1.3581619E3,1.7657129E3,2.8677307E1,1.0870387E2,1.2173529E2,7.38E1,5.882656E2,9.667877E0,6.0718384E0,4.1653435E1,5.791157E2,2.313283E3,8.468906E2,1.2988132E3,7.574756E2,9.7121906E2,1.2424169E3,2.3758008E2,0E0,9.801636E-1,5.8867027E1,0E0,7.148123E1,0E0,6.940999E1,0E0,4.1015625E1,1.3118384E3,0E0,0E0,3.7279053E0,0E0,2.6685638E0,0E0,2.23833E1,6.235438E2,1.6538545E3,7.264313E2,9.447639E2,2.9534375E2,5.767734E2,6.550726E1,4.2837354E2,8.2692145E2,4.0240112E1,2.1112018E2,8.981987E2,4.151266E2,3.0307495E2,2.475332E2,0E0,0E0,0E0,0E0,0E0,0E0,0E0,0E0,0E0,0E0,0E0,0E0,0E0,0E0,0E0,0E0,0E0,0E0,0E0,0E0,0E0,0E0,0E0,0E0,0E0,0E0,0E0,0E0,0E0,0E0,0E0,0E0,0E0,0E0,0E0,0E0,0E0,0E0,0E0,0E0,0E0,0E0,0E0,0E0,0E0,0E0,0E0,0E0],"parents":[2147483647,0,0,1,1,2,2,3,3,4,4,5,5,6,6,7,7,8,8,9,9,10,10,11,11,12,12,13,13,14,14,15,15,16,16,17,17,18,18,19,19,20,20,21,21,22,22,23,23,24,24,25,25,26,26,27,27,28,28,29,29,30,30,32,32,33,33,35,35,37,37,39,39,40,40,43,43,45,45,47,47,48,48,49,49,50,50,51,51,52,52,53,53,54,54,55,55,56,56,57,57,58,58,59,59,60,60,61,61,62,62],"right_children":[2,4,6,8,10,12,14,16,18,20,22,24,26,28,30,32,34,36,38,40,42,44,46,48,50,52,54,56,58,60,62,-1,64,66,-1,68,-1,70,-1,72,74,-1,-1,76,-1,78,-1,80,82,84,86,88,90,92,94,96,98,100,102,104,106,108,110,-1,-1,-1,-1,-1,-1,-1,-1,-1,-1,-1,-1,-1,-1,-1,-1,-1,-1,-1,-1,-1,-1,-1,-1,-1,-1,-1,-1,-1,-1,-1,-1,-1,-1,-1,-1,-1,-1,-1,-1,-1,-1,-1,-1,-1,-1,-1,-1],"split_conditions":[-1.7873995E0,-8.6687095E-2,1.5409334E0,-1.4655715E-1,1.9532697E0,-6.978789E-1,-1.18838035E-1,2.0169117E0,-1.3049985E0,6.2425137E-1,3.465598E-1,4.36141E-1,2.1170301E0,4.3662304E-1,-3.2324374E-1,-3.4563901E0,-1.19669E-1,2.8238055E-1,-1.2785811E0,-3.6509564E0,9.157016E-1,2.4921196E0,-2.2365901E-1,-2.7320242E-1,-3.0024463E-1,-8.17551E-1,-2.6492757E-1,3.0809084E-1,1.5548651E0,2.544908E-1,-2.4346332E-1,1.1474516E-1,-4.7117257E-1,2.5199395E-2,-1.4712076E-1,-8.2094884E-1,-1.54061E-1,1.1219388E0,-1.5582828E-1,2.1170301E0,2.0055516E0,-1.5836811E-1,8.139754E-2,7.427229E-2,4.1221734E-2,1.3770313E0,-1.3204442E-1,-1.4558691E0,-2.5075844E-1,-4.753586E-1,-2.7824705E0,7.962197E-2,9.774759E-1,-3.1148687E-1,-1.419462E0,1.650027E0,7.307213E-2,-3.5031182E-1,-1.5311362E0,7.082003E-3,4.9396906E0,5.344446E-1,5.6819067E0,-1.488779E-1,-1.6921681E-1,-1.4984688E-1,1.3110544E-1,1.494597E-1,-1.5392426E-1,-1.451029E-1,9.346098E-2,1.490848E-1,-1.7642286E-1,1.3123068E-1,-3.6840957E-2,-1.5917455E-1,1.0530976E-2,1.4521646E-3,1.5423894E-1,-1.1861094E-1,-1.5152088E-1,-1.4508468E-1,-2.3966124E-2,1.1951456E-1,-9.65851E-2,1.4600034E-1,-1.3856176E-1,3.5949193E-2,-1.5099232E-1,-1.4458288E-1,-1.1513869E-1,-1.0766449E-1,1.373773E-1,1.0094233E-1,-1.592658E-1,1.2797223E-1,-5.8264066E-2,8.1793286E-2,-1.4639671E-1,-4.020659E-2,-1.5928434E-1,1.537509E-1,-1.7927103E-1,-1.20883904E-1,1.1656159E-1,-1.5321444E-1,1.8079175E-1,-1.1503891E-1,3.5643812E-2,-1.4436185E-1,1.12417065E-1],"split_indices":[14,4,4,29,1,14,8,1,10,10,19,4,7,13,29,10,26,16,3,14,1,11,26,4,13,20,26,14,17,8,20,0,4,18,0,3,0,0,0,7,17,0,0,20,0,0,0,10,29,0,3,12,7,9,17,3,7,29,19,28,4,11,4,0,0,0,0,0,0,0,0,0,0,0,0,0,0,0,0,0,0,0,0,0,0,0,0,0,0,0,0,0,0,0,0,0,0,0,0,0,0,0,0,0,0,0,0,0,0,0,0],"split_type":[0,0,0,0,0,0,0,0,0,0,0,0,0,0,0,0,0,0,0,0,0,0,0,0,0,0,0,0,0,0,0,0,0,0,0,0,0,0,0,0,0,0,0,0,0,0,0,0,0,0,0,0,0,0,0,0,0,0,0,0,0,0,0,0,0,0,0,0,0,0,0,0,0,0,0,0,0,0,0,0,0,0,0,0,0,0,0,0,0,0,0,0,0,0,0,0,0,0,0,0,0,0,0,0,0,0,0,0,0,0,0],"sum_hessian":[1.0214665E5,4.5765016E4,5.6381637E4,9.3064545E2,4.483437E4,4.8779434E4,7.6022026E3,5.4136255E2,3.892829E2,4.457696E4,2.574095E2,8.161112E3,4.061832E4,3.1827158E3,4.419487E3,4.2553357E2,1.15828995E2,2.39688E2,1.4959491E2,4.4437285E4,1.3967564E2,2.041097E2,5.329979E1,5.1136387E3,3.0474731E3,3.9658133E4,9.6018665E2,2.5076494E3,6.7506647E2,1.4957632E3,2.9237234E3,3.318156E0,4.222154E2,3.6853203E1,7.897579E1,2.2537685E2,1.4311148E1,4.823488E1,1.0136003E2,4.0401887E4,4.0354001E3,1.385422E2,1.1334323E0,2.0294359E2,1.1661143E0,4.8238003E1,5.061787E0,3.3928125E3,1.7208264E3,1.9386768E3,1.1087964E3,1.0835547E3,3.857458E4,6.1577936E2,3.4440732E2,1.8498647E3,6.577847E2,4.8887146E2,1.8619499E2,1.02105383E3,4.747094E2,6.4479987E2,2.2789236E3,3.1366302E2,1.0855238E2,9.155375E0,2.7697828E1,2.1810034E2,7.276511E0,1.9851278E1,2.8383598E1,4.0398805E4,3.0803194E0,3.50043E3,5.3497003E2,2.0176184E2,1.1817377E0,1.1905856E0,4.7047417E1,2.4387436E2,3.1489382E3,7.654188E2,9.5540753E2,1.4733949E3,4.6528186E2,9.7625336E1,1.0111711E3,5.742353E2,5.093195E2,3.477041E4,3.8041707E3,1.18185425E2,4.9759393E2,9.322557E0,3.3508478E2,1.7173529E3,1.3251184E2,3.9252292E2,2.652618E2,3.110015E1,4.5777133E2,1.6554784E2,2.064715E1,1.965433E2,8.245105E2,4.3485825E2,3.985115E1,4.5696323E2,1.8783665E2,2.2414348E3,3.748873E1],"tree_param":{"num_deleted":"0","num_feature":"30","num_nodes":"111","size_leaf_vector":"1"}},{"base_weights":[4.0956216E-5,1.321465E0,-1.0616333E0,-6.2630045E-1,1.3621169E0,-1.2857311E0,-5.719698E-1,-1.3022962E0,3.1069425E-1,1.4206836E0,8.0414927E-1,-1.3695421E0,-1.0096382E0,-2.884569E-2,-1.044723E0,-1.4440789E0,-7.7395374E-1,1.1433606E0,-1.0169121E0,1.421204E0,-1.5039739E-1,1.14924364E-1,1.2702578E0,-9.3106663E-1,-1.3858949E0,-1.2861822E0,-2.688278E-1,8.37846E-1,-4.6182668E-1,-1.7651738E-1,-1.1452042E0,1.09552935E-1,-1.4668833E-1,5.5365807E-1,-1.4019586E-1,1.3152101E0,-1.4565963E-1,-5.4712623E-2,-1.4781824E-1,-1.609119E-1,1.4215668E0,6.80562E-1,-1.476451E0,1.3232017E0,-1.4655213E-1,-1.4483596E-1,-2.364015E-1,-1.2543694E0,-1.414672E0,-8.882249E-1,-1.4322748E0,-1.3273537E0,3.6205062E-1,-1.4059335E0,9.8630786E-1,-7.9500353E-1,5.2785504E-1,-9.12688E-1,6.516808E-1,-1.185424E0,7.958586E-1,-1.415283E-1,1.2312732E-1,1.4153253E-1,-1.4451177E-1,-1.3812466E-1,8.58762E-2,1.421735E-1,-1.5184972E-1,1.2112689E-1,-5.733942E-2,-1.4267583E-2,-1.6579476E-1,1.8304544E-2,1.3732249E-1,-1.20483875E-1,8.307384E-2,-1.4245065E-1,-9.636839E-2,-1.4200345E-1,-1.2825799E-1,-1.4381023E-1,-4.3940734E-2,-1.4394084E-1,-9.6975714E-2,-1.4605734E-1,7.64458E-2,-1.6754861E-1,6.732088E-2,-1.558108E-1,-5.272416E-2,1.1446537E-1,-3.07666E-2,1.3455661E-2,-1.0432334E-1,1.0810937E-1,-8.2444154E-2,6.9350086E-2,-1.12979606E-1,1.0897564E-1,-1.6584681E-1,-7.984312E-2,-1.306215E-1,1.2049514E-1,-1.6575514E-1],"categories":[],"categories_nodes":[],"categories_segments":[],"categories_sizes":[],"default_left":[0,0,0,0,0,0,0,0,0,0,0,0,0,0,0,0,0,0,0,0,0,0,0,0,0,0,0,0,0,0,0,0,0,0,0,0,0,0,0,0,0,0,0,0,0,0,0,0,0,0,0,0,0,0,0,0,0,0,0,0,0,0,0,0,0,0,0,0,0,0,0,0,0,0,0,0,0,0,0,0,0,0,0,0,0,0,0,0,0,0,0,0,0,0,0,0,0,0,0,0,0,0,0,0,0],"id":5,"left_children":[1,3,5,7,9,11,13,15,17,19,21,23,25,27,29,31,33,35,37,39,-1,41,43,45,47,49,51,53,55,57,59,-1,-1,61,-1,63,-1,65,-1,-1,67,69,71,73,-1,-1,75,77,79,81,83,85,87,89,91,93,95,97,99,101,103,-1,-1,-1,-1,-1,-1,-1,-1,-1,-1,-1,-1,-1,-1,-1,-1,-1,-1,-1,-1,-1,-1,-1,-1,-1,-1,-1,-1,-1,-1,-1,-1,-1,-1,-1,-1,-1,-1,-1,-1,-1,-1,-1,-1],"loss_changes":[1.3664623E5,3.4366875E3,5.9257773E3,5.627509E2,1.3878672E3,8.5596484E2,4.354372E3,3.753058E1,4.1337088E2,6.0664062E1,1.2977361E3,2.0249219E2,1.768041E3,2.9623406E3,7.907656E2,2.5097961E1,9.358338E1,1.0451462E2,6.3945007E1,4.459375E1,0E0,1.4691556E3,3.510149E2,3.6793628E2,1.0191797E2,3.6414258E2,1.5682379E3,8.7744617E2,1.7362167E3,5.747263E2,6.3533887E2,0E0,0E0,5.0390736E1,0E0,6.1714447E1,0E0,5.90889E1,0E0,0E0,2.115625E1,8.0193634E2,1.03377014E2,1.3462305E2,0E0,0E0,4.543067E2,2.4229541E2,1.409375E1,4.1654907E2,1.3768555E1,2.454823E2,9.342065E2,2.1057281E1,5.0588452E2,9.08978E2,9.93256E2,1.7477545E2,4.5086115E2,3.7111914E2,1.6816148E2,0E0,0E0,0E0,0E0,0E0,0E0,0E0,0E0,0E0,0E0,0E0,0E0,0E0,0E0,0E0,0E0,0E0,0E0,0E0,0E0,0E0,0E0,0E0,0E0,0E0,0E0,0E0,0E0,0E0,0E0,0E0,0E0,0E0,0E0,0E0,0E0,0E0,0E0,0E0,0E0,0E0,0E0,0E0,0E0],"parents":[2147483647,0,0,1,1,2,2,3,3,4,4,5,5,6,6,7,7,8,8,9,9,10,10,11,11,12,12,13,13,14,14,15,15,16,16,17,17,18,18,19,19,21,21,22,22,23,23,24,24,25,25,26,26,27,27,28,28,29,29,30,30,33,33,35,35,37,37,40,40,41,41,42,42,43,43,46,46,47,47,48,48,49,49,50,50,51,51,52,52,53,53,54,54,55,55,56,56,57,57,58,58,59,59,60,60],"right_children":[2,4,6,8,10,12,14,16,18,20,22,24,26,28,30,32,34,36,38,40,-1,42,44,46,48,50,52,54,56,58,60,-1,-1,62,-1,64,-1,66,-1,-1,68,70,72,74,-1,-1,76,78,80,82,84,86,88,90,92,94,96,98,100,102,104,-1,-1,-1,-1,-1,-1,-1,-1,-1,-1,-1,-1,-1,-1,-1,-1,-1,-1,-1,-1,-1,-1,-1,-1,-1,-1,-1,-1,-1,-1,-1,-1,-1,-1,-1,-1,-1,-1,-1,-1,-1,-1,-1,-1],"split_conditions":[-1.7873995E0,-8.6687095E-2,7.4612343E-1,-1.4655715E-1,-1.7536242E0,6.822981E-1,-9.7759746E-2,2.0169117E0,-1.3049985E0,3.119673E-1,2.038963E0,-6.8850857E-1,5.6859426E-2,-4.9794272E-1,-5.284332E-1,-3.4563901E0,-1.19669E-1,2.8238055E-1,-1.2785811E0,-4.9206448E-1,-1.5039739E-1,5.273387E-1,6.4941305E-1,-2.160348E-1,-5.5908054E-1,-8.7354976E-1,6.861706E-2,-1.0838003E0,2.5201845E-1,7.4696803E-1,2.005106E0,1.09552935E-1,-1.4668833E-1,2.5199395E-2,-1.4019586E-1,-8.2094884E-1,-1.4565963E-1,1.1219388E0,-1.4781824E-1,-1.609119E-1,3.7911456E0,-1.0689146E-1,3.2060483E-1,-2.6492757E-1,-1.4655213E-1,-1.4483596E-1,-1.6979179E0,-3.6594678E-2,5.1408064E-1,-2.7034257E-2,2.9915373E0,1.4781014E0,-7.433712E-1,-1.1891222E0,4.117275E-1,-1.4185396E0,-1.9412033E-1,-1.4192591E0,7.619107E-1,-3.2748172E-1,-1.7075233E-2,-1.415283E-1,1.2312732E-1,1.4153253E-1,-1.4451177E-1,-1.3812466E-1,8.58762E-2,1.421735E-1,-1.5184972E-1,1.2112689E-1,-5.733942E-2,-1.4267583E-2,-1.6579476E-1,1.8304544E-2,1.3732249E-1,-1.20483875E-1,8.307384E-2,-1.4245065E-1,-9.636839E-2,-1.4200345E-1,-1.2825799E-1,-1.4381023E-1,-4.3940734E-2,-1.4394084E-1,-9.6975714E-2,-1.4605734E-1,7.64458E-2,-1.6754861E-1,6.732088E-2,-1.558108E-1,-5.272416E-2,1.1446537E-1,-3.07666E-2,1.3455661E-2,-1.0432334E-1,1.0810937E-1,-8.2444154E-2,6.9350086E-2,-1.12979606E-1,1.0897564E-1,-1.6584681E-1,-7.984312E-2,-1.306215E-1,1.2049514E-1,-1.6575514E-1],"split_indices":[14,4,4,29,10,7,12,1,10,12,4,20,4,14,8,10,26,16,3,11,0,16,10,4,14,10,18,11,23,22,11,0,0,18,0,3,0,0,0,0,7,22,4,26,0,0,1,4,21,29,7,22,9,11,0,19,16,13,14,29,21,0,0,0,0,0,0,0,0,0,0,0,0,0,0,0,0,0,0,0,0,0,0,0,0,0,0,0,0,0,0,0,0,0,0,0,0,0,0,0,0,0,0,0,0],"split_type":[0,0,0,0,0,0,0,0,0,0,0,0,0,0,0,0,0,0,0,0,0,0,0,0,0,0,0,0,0,0,0,0,0,0,0,0,0,0,0,0,0,0,0,0,0,0,0,0,0,0,0,0,0,0,0,0,0,0,0,0,0,0,0,0,0,0,0,0,0,0,0,0,0,0,0,0,0,0,0,0,0,0,0,0,0,0,0,0,0,0,0,0,0,0,0,0,0,0,0,0,0,0,0,0,0],"sum_hessian":[9.7399164E4,4.3391383E4,5.400778E4,8.8681555E2,4.2504566E4,3.704999E4,1.6957795E4,5.149294E2,3.7188617E2,3.8465516E4,4.0390535E3,2.84191E4,8.630888E3,7.8920493E3,9.065746E3,4.0461594E2,1.10313416E2,2.2862978E2,1.432564E2,3.8459188E4,6.3279214E0,1.6300216E3,2.409032E3,1.02386017E3,2.739524E4,6.2842466E3,2.3466409E3,2.6288948E3,5.263155E3,9.4066986E2,8.125076E3,3.1822765E0,4.014337E2,3.5462833E1,7.4850586E1,2.1491844E2,1.3711331E1,4.6784195E1,9.647219E1,4.074833E0,3.8455113E4,1.2030002E3,4.2702142E2,2.363803E3,4.5228897E1,5.8623004E2,4.3763013E2,4.9259233E3,2.2469316E4,1.689397E3,4.5948496E3,8.758996E2,1.4707413E3,1.626229E2,2.4662717E3,3.937717E3,1.3254376E3,4.9794946E2,4.427204E2,7.96052E3,1.6455624E2,8.801055E0,2.666178E1,2.0786655E2,7.051908E0,1.8869751E1,2.7914444E1,3.845343E4,1.6816162E0,8.4528687E2,3.5771335E2,5.1361797E1,3.7565964E2,9.954637E1,2.2642566E3,2.2935748E2,2.0827264E2,3.1047979E3,1.8211254E3,2.158338E4,8.859367E2,7.582313E2,9.311656E2,4.5229785E3,7.187117E1,8.237405E2,5.2159134E1,1.9426488E2,1.2764764E3,1.3795775E2,2.466515E1,2.197478E3,2.687937E2,8.3000604E2,3.107711E3,9.4076245E2,3.846752E2,5.903177E1,4.389177E2,3.7259344E2,7.012694E1,1.8954493E3,6.065071E3,1.4147493E2,2.3081308E1],"tree_param":{"num_deleted":"0","num_feature":"30","num_nodes":"105","size_leaf_vector":"1"}},{"base_weights":[1.1473519E-4,1.2660986E0,-1.0050024E0,-5.979707E-1,1.3051839E0,-1.2261343E0,-5.3275645E-1,-1.244979E0,2.942158E-1,1.3637887E0,7.572922E-1,-1.3120179E0,-9.57055E-1,3.947934E-2,-9.3195987E-1,-1.3481069E0,-5.760134E-1,1.087996E0,-9.653084E-1,1.3643019E0,-1.3947605E-1,9.92295E-2,1.2040153E0,-9.0326923E-1,-1.3293124E0,-1.2233162E0,-2.6237205E-1,4.9074346E-1,-6.8973684E-1,-7.320164E-1,-1.3445824E0,1.0492232E-1,-1.368039E0,-1.3852476E-1,4.5469517E-1,1.2525654E0,-1.3863033E-1,-5.3082425E-2,-1.4123511E-1,-1.4946014E-1,1.3646616E0,6.263491E-1,-1.3819056E0,1.2543317E0,-1.3977647E-1,-1.0870678E0,9.460698E-1,-1.1969115E0,-1.3585943E0,-8.283097E-1,-1.3720405E0,-1.1588379E0,4.0529168E-1,7.486511E-1,-1.038715E0,7.1004003E-1,-9.979755E-1,-9.855943E-1,5.210259E-2,-1.3759581E0,1.1974928E0,-1.4026134E-1,-1.0896402E-1,1.08232215E-1,-1.259586E-1,1.349269E-1,-1.3662905E-1,-1.4096732E-1,7.83835E-2,1.3648318E-1,-1.4054821E-1,1.1357381E-1,-5.529354E-2,-3.2281313E-2,-1.6176675E-1,1.7779566E-2,1.306958E-1,-1.3818271E-1,-3.1189222E-2,-1.3678917E-1,1.654095E-1,-1.2487864E-1,-2.1387257E-2,-1.3631175E-1,-1.2456008E-1,-1.226534E-1,-2.0686997E-2,-1.3793927E-1,-8.9838035E-2,-1.3414732E-1,7.5109676E-2,-1.5436338E-1,7.214213E-2,9.159673E-2,-8.313899E-2,-1.2934875E-1,1.6316491E-3,1.1059637E-1,-1.4136742E-1,2.8226767E-2,-1.1895819E-1,-5.315737E-2,-1.2007721E-1,6.1401244E-2,-1.428238E-1,-1.07880495E-1,-1.404256E-1,-1.4913565E-1,2.0539363E-1],"categories":[],"categories_nodes":[],"categories_segments":[],"categories_sizes":[],"default_left":[0,0,0,0,0,0,0,0,0,0,0,0,0,0,0,0,0,0,0,0,0,0,0,0,0,0,0,0,0,0,0,0,0,0,0,0,0,0,0,0,0,0,0,0,0,0,0,0,0,0,0,0,0,0,0,0,0,0,0,0,0,0,0,0,0,0,0,0,0,0,0,0,0,0,0,0,0,0,0,0,0,0,0,0,0,0,0,0,0,0,0,0,0,0,0,0,0,0,0,0,0,0,0,0,0,0,0,0,0],"id":6,"left_children":[1,3,5,7,9,11,13,15,17,19,21,23,25,27,29,31,33,35,37,39,-1,41,43,45,47,49,51,53,55,57,59,-1,61,-1,63,65,-1,67,-1,-1,69,71,73,75,-1,77,79,81,83,85,87,89,91,93,95,97,99,101,103,105,107,-1,-1,-1,-1,-1,-1,-1,-1,-1,-1,-1,-1,-1,-1,-1,-1,-1,-1,-1,-1,-1,-1,-1,-1,-1,-1,-1,-1,-1,-1,-1,-1,-1,-1,-1,-1,-1,-1,-1,-1,-1,-1,-1,-1,-1,-1,-1,-1],"loss_changes":[1.1757339E5,2.9801172E3,5.3780273E3,4.855468E2,1.2850312E3,8.0939844E2,3.7528179E3,3.2847534E1,3.550916E2,5.3125E1,1.138291E3,1.867539E2,1.5702417E3,2.2221719E3,7.973887E2,2.1578003E1,5.6384544E1,9.037863E1,5.5968277E1,3.9226562E1,0E0,1.2242405E3,3.0371094E2,3.689569E2,9.726953E1,3.5945605E2,1.4094249E3,1.6462278E3,1.114522E3,1.2965886E3,2.5348291E2,0E0,2.499939E0,0E0,3.3805183E1,5.366916E1,0E0,5.3599957E1,0E0,0E0,1.8960938E1,6.952656E2,1.0225177E2,1.2799463E2,0E0,2.2464417E2,1.6345764E2,2.3573682E2,8.972656E0,4.1585547E2,1.4285156E1,3.5160278E2,8.3281134E2,9.445702E2,1.6192365E2,3.9376892E2,5.193999E2,4.807329E2,1.327109E3,2.471582E1,9.294423E1,0E0,0E0,0E0,0E0,0E0,0E0,0E0,0E0,0E0,0E0,0E0,0E0,0E0,0E0,0E0,0E0,0E0,0E0,0E0,0E0,0E0,0E0,0E0,0E0,0E0,0E0,0E0,0E0,0E0,0E0,0E0,0E0,0E0,0E0,0E0,0E0,0E0,0E0,0E0,0E0,0E0,0E0,0E0,0E0,0E0,0E0,0E0,0E0],"parents":[2147483647,0,0,1,1,2,2,3,3,4,4,5,5,6,6,7,7,8,8,9,9,10,10,11,11,12,12,13,13,14,14,15,15,16,16,17,17,18,18,19,19,21,21,22,22,23,23,24,24,25,25,26,26,27,27,28,28,29,29,30,30,32,32,34,34,35,35,37,37,40,40,41,41,42,42,43,43,45,45,46,46,47,47,48,48,49,49,50,50,51,51,52,52,53,53,54,54,55,55,56,56,57,57,58,58,59,59,60,60],"right_children":[2,4,6,8,10,12,14,16,18,20,22,24,26,28,30,32,34,36,38,40,-1,42,44,46,48,50,52,54,56,58,60,-1,62,-1,64,66,-1,68,-1,-1,70,72,74,76,-1,78,80,82,84,86,88,90,92,94,96,98,100,102,104,106,108,-1,-1,-1,-1,-1,-1,-1,-1,-1,-1,-1,-1,-1,-1,-1,-1,-1,-1,-1,-1,-1,-1,-1,-1,-1,-1,-1,-1,-1,-1,-1,-1,-1,-1,-1,-1,-1,-1,-1,-1,-1,-1,-1,-1,-1,-1,-1,-1],"split_conditions":[-1.7873995E0,-8.6687095E-2,7.4612343E-1,-1.4655715E-1,-1.7536242E0,6.646638E-1,-2.3586337E-1,1.4210759E0,-1.3049985E0,3.119673E-1,1.9592661E0,-6.539859E-1,5.6859426E-2,2.696623E-1,2.215562E-1,-3.4563901E0,3.3512494E-1,2.8238055E-1,-1.2785811E0,-4.9206448E-1,-1.3947605E-1,5.273387E-1,6.4941305E-1,1.3244075E0,-5.5908054E-1,-8.7354976E-1,1.734976E-1,1.2670584E0,-7.647039E-1,4.5522535E-1,6.0421176E0,1.0492232E-1,-1.8604946E0,-1.3852476E-1,-1.19669E-1,-8.2094884E-1,-1.3863033E-1,-7.986472E-1,-1.4123511E-1,-1.4946014E-1,3.7911456E0,-1.0689146E-1,1.6250451E-1,-2.6492757E-1,-1.3977647E-1,9.876323E-2,7.82556E-1,1.4682266E0,5.1408064E-1,2.3049645E-1,2.9915373E0,2.9915373E0,-7.1037567E-1,1.1936203E0,1.7080525E-1,-1.9441842E-1,-1.7663244E0,-8.7660074E-2,-8.283914E-2,2.544908E-1,-6.2456036E0,-1.4026134E-1,-1.0896402E-1,1.08232215E-1,-1.259586E-1,1.349269E-1,-1.3662905E-1,-1.4096732E-1,7.83835E-2,1.3648318E-1,-1.4054821E-1,1.1357381E-1,-5.529354E-2,-3.2281313E-2,-1.6176675E-1,1.7779566E-2,1.306958E-1,-1.3818271E-1,-3.1189222E-2,-1.3678917E-1,1.654095E-1,-1.2487864E-1,-2.1387257E-2,-1.3631175E-1,-1.2456008E-1,-1.226534E-1,-2.0686997E-2,-1.3793927E-1,-8.9838035E-2,-1.3414732E-1,7.5109676E-2,-1.5436338E-1,7.214213E-2,9.159673E-2,-8.313899E-2,-1.2934875E-1,1.6316491E-3,1.1059637E-1,-1.4136742E-1,2.8226767E-2,-1.1895819E-1,-5.315737E-2,-1.2007721E-1,6.1401244E-2,-1.428238E-1,-1.07880495E-1,-1.404256E-1,-1.4913565E-1,2.0539363E-1],"split_indices":[14,4,4,29,10,7,12,0,10,12,4,20,4,14,8,10,19,16,3,11,0,16,10,22,14,10,18,3,8,17,4,0,14,0,26,3,0,2,0,0,7,22,2,26,0,4,21,11,21,15,7,7,9,1,11,13,19,21,13,8,1,0,0,0,0,0,0,0,0,0,0,0,0,0,0,0,0,0,0,0,0,0,0,0,0,0,0,0,0,0,0,0,0,0,0,0,0,0,0,0,0,0,0,0,0,0,0,0,0],"split_type":[0,0,0,0,0,0,0,0,0,0,0,0,0,0,0,0,0,0,0,0,0,0,0,0,0,0,0,0,0,0,0,0,0,0,0,0,0,0,0,0,0,0,0,0,0,0,0,0,0,0,0,0,0,0,0,0,0,0,0,0,0,0,0,0,0,0,0,0,0,0,0,0,0,0,0,0,0,0,0,0,0,0,0,0,0,0,0,0,0,0,0,0,0,0,0,0,0,0,0,0,0,0,0,0,0,0,0,0,0],"sum_hessian":[9.2396336E4,4.0891566E4,5.150477E4,8.3950024E2,4.0052066E4,3.5077793E4,1.6426977E4,4.8638287E2,3.5311737E2,3.618055E4,3.8715166E3,2.658775E4,8.490042E3,6.7508755E3,9.676102E3,4.205375E2,6.584537E1,2.1669043E2,1.3642694E2,3.617433E4,6.2243805E0,1.5659521E3,2.3055645E3,1.0814426E3,2.5506309E4,6.1370464E3,2.3529958E3,4.1704097E3,2.580466E3,6.5196606E3,3.156441E3,3.0418358E0,4.1749567E2,3.669291E1,2.9152458E1,2.036398E2,1.3050622E1,4.523667E1,9.119027E1,4.027124E0,3.61703E4,1.1553522E3,4.1059998E2,2.2623306E3,4.3233826E1,9.840535E2,9.738903E1,4.626962E3,2.0879346E4,1.6804369E3,4.4566094E3,1.0040849E3,1.348911E3,3.569078E3,6.013316E2,4.6545102E2,2.115015E3,4.9262827E3,1.5933779E3,3.1184106E3,3.8030415E1,3.6778253E2,4.9713154E1,2.1609503E1,7.5429554E0,1.9685551E2,6.784287E0,1.6998615E1,2.8238058E1,3.6168586E4,1.713669E0,8.0686554E2,3.484866E2,7.5191826E1,3.3540814E2,1.0564358E2,2.156687E3,7.123869E2,2.7166666E2,2.259905E1,7.478998E1,4.394779E3,2.3218283E2,2.0065074E4,8.142723E2,1.02355786E3,6.56879E2,4.386608E3,7.000145E1,9.1672205E2,8.736282E1,1.8772313E2,1.1611879E3,3.227705E3,3.413729E2,4.8418335E2,1.1714823E2,3.9271625E2,7.273477E1,2.7527246E2,1.8397426E3,1.5851401E3,3.3411426E3,1.1553962E3,4.3798175E2,2.7454602E2,2.8438645E3,9.007996E0,2.9022417E1],"tree_param":{"num_deleted":"0","num_feature":"30","num_nodes":"109","size_leaf_vector":"1"}},{"base_weights":[1.2892045E-4,1.2076435E0,-9.6524507E-1,-6.201411E-1,1.2527304E0,-1.1808938E0,-5.1311356E-1,3.2798618E-1,-1.1160932E0,1.3174186E0,7.1944857E-1,-1.2636882E0,-9.051861E-1,-6.7679584E-3,-9.0234137E-1,-1.3872617E-1,1.0360397E0,-1.3485241E-1,-5.2435976E-1,1.3178412E0,-1.3908742E-1,1.18684925E-1,1.1578789E0,-7.584172E-1,-1.2796317E0,-3.6247393E-1,-1.2463027E0,3.0738556E-1,-9.660715E-1,-6.458769E-1,-1.2115052E0,1.2346464E0,-1.3497494E-1,5.7408774E-1,-1.1386169E0,-1.3294654E-1,1.3181669E0,5.799496E-1,-1.2754223E0,1.2080258E0,-1.3893741E-1,-1.2466286E0,1.3588434E-1,-1.1450175E0,-1.3056544E0,3.7368983E-2,-1.2648257E0,-1.3216342E0,-1.1300936E-2,7.1209204E-1,-4.7489747E-1,7.8359294E-1,-1.1800151E0,-3.7059098E-1,-1.3797171E-1,2.9093117E-1,-1.2637722E0,1.3580607E-1,-1.3326414E-1,-1.3466302E-1,1.1071608E-1,-1.3197039E-1,1.7524223E-1,1.3183403E-1,-1.3099365E-1,-1.6089068E-1,7.883617E-2,-9.262978E-3,-1.505135E-1,-1.9404964E-1,1.225426E-1,-1.3386942E-1,-1.5231189E-2,-1.3347721E-1,1.03244305E-1,-1.2130698E-1,-3.544673E-3,-1.3125668E-1,-1.08395256E-1,-1.4209113E-1,3.5390858E-2,-3.0038109E-2,-1.3591214E-1,-7.3328644E-2,-1.3461208E-1,1.3337635E-1,-1.4191568E-1,8.2835995E-2,-1.2557314E-1,5.981149E-2,-9.081634E-2,-7.964691E-2,1.22671425E-1,-4.17322E-3,-1.3335848E-1,-6.9904536E-2,4.181544E-2,-1.4348824E-1,1.23023055E-1,-1.2847488E-1,8.625975E-2],"categories":[],"categories_nodes":[],"categories_segments":[],"categories_sizes":[],"default_left":[0,0,0,0,0,0,0,0,0,0,0,0,0,0,0,0,0,0,0,0,0,0,0,0,0,0,0,0,0,0,0,0,0,0,0,0,0,0,0,0,0,0,0,0,0,0,0,0,0,0,0,0,0,0,0,0,0,0,0,0,0,0,0,0,0,0,0,0,0,0,0,0,0,0,0,0,0,0,0,0,0,0,0,0,0,0,0,0,0,0,0,0,0,0,0,0,0,0,0,0,0],"id":7,"left_children":[1,3,5,7,9,11,13,15,17,19,21,23,25,27,29,-1,31,-1,33,35,-1,37,39,41,43,45,47,49,51,53,55,57,-1,59,61,-1,63,65,67,69,-1,71,73,75,77,79,81,83,85,87,89,91,93,95,-1,97,99,-1,-1,-1,-1,-1,-1,-1,-1,-1,-1,-1,-1,-1,-1,-1,-1,-1,-1,-1,-1,-1,-1,-1,-1,-1,-1,-1,-1,-1,-1,-1,-1,-1,-1,-1,-1,-1,-1,-1,-1,-1,-1,-1,-1],"loss_changes":[1.0171416E5,3.1954414E3,4.727203E3,4.3951337E2,1.3041836E3,7.482656E2,3.086461E3,3.9191E2,8.365753E1,4.045703E1,1.0784519E3,2.0239844E2,1.4038271E3,2.0518164E3,7.012739E2,0E0,1.0976865E2,0E0,1.1847894E2,3.0832031E1,0E0,1.1124261E3,3.0405957E2,3.3840558E2,8.423047E1,1.0568411E3,4.3328467E2,1.6240828E3,6.296366E2,9.776068E2,3.1554346E2,6.870523E1,0E0,6.629657E1,6.112184E1,0E0,1.7105469E1,5.941544E2,1.16720215E2,1.2959082E2,0E0,5.0293457E1,3.6327588E2,2.9991406E2,2.9992188E1,9.378526E2,8.138562E1,6.225293E1,5.108401E2,7.744829E2,8.1377637E2,1.2952432E2,2.6162354E2,9.1281226E2,0E0,2.2181241E2,1.741167E2,0E0,0E0,0E0,0E0,0E0,0E0,0E0,0E0,0E0,0E0,0E0,0E0,0E0,0E0,0E0,0E0,0E0,0E0,0E0,0E0,0E0,0E0,0E0,0E0,0E0,0E0,0E0,0E0,0E0,0E0,0E0,0E0,0E0,0E0,0E0,0E0,0E0,0E0,0E0,0E0,0E0,0E0,0E0,0E0],"parents":[2147483647,0,0,1,1,2,2,3,3,4,4,5,5,6,6,7,7,8,8,9,9,10,10,11,11,12,12,13,13,14,14,16,16,18,18,19,19,21,21,22,22,23,23,24,24,25,25,26,26,27,27,28,28,29,29,30,30,31,31,33,33,34,34,36,36,37,37,38,38,39,39,41,41,42,42,43,43,44,44,45,45,46,46,47,47,48,48,49,49,50,50,51,51,52,52,53,53,55,55,56,56],"right_children":[2,4,6,8,10,12,14,16,18,20,22,24,26,28,30,-1,32,-1,34,36,-1,38,40,42,44,46,48,50,52,54,56,58,-1,60,62,-1,64,66,68,70,-1,72,74,76,78,80,82,84,86,88,90,92,94,96,-1,98,100,-1,-1,-1,-1,-1,-1,-1,-1,-1,-1,-1,-1,-1,-1,-1,-1,-1,-1,-1,-1,-1,-1,-1,-1,-1,-1,-1,-1,-1,-1,-1,-1,-1,-1,-1,-1,-1,-1,-1,-1,-1,-1,-1,-1],"split_conditions":[-1.6719847E0,-8.6687095E-2,7.4612343E-1,-1.3049985E0,-1.8619348E0,6.999981E-1,-1.7962955E-1,-1.6931742E-1,1.7368912E0,3.2508346E-1,1.9592661E0,-7.7573925E-1,-1.9609061E-1,1.2412873E-1,1.0261386E-1,-1.3872617E-1,2.8238055E-1,-1.3485241E-1,-1.2396507E-1,-4.9206448E-1,-1.3908742E-1,5.273387E-1,6.754699E-1,-1.8069475E0,-6.0102785E-1,4.928698E-2,8.36395E-1,2.824995E-1,-1.0787953E0,2.544908E-1,-3.5031182E-1,-6.9780225E-1,-1.3497494E-1,2.5199395E-2,1.3864232E0,-1.3294654E-1,3.7911456E0,-2.0808254E-1,8.2477003E-1,-6.9171286E-1,-1.3893741E-1,8.774107E-1,-2.160348E-1,1.4682266E0,5.8135897E-1,-6.1219007E-1,-1.2168368E0,-1.329495E0,-8.918333E-1,1.650027E0,-6.578457E-1,2.1314363E-1,-1.920431E0,6.561218E-1,-1.3797171E-1,6.467306E-2,1.4560083E0,1.3580607E-1,-1.3326414E-1,-1.3466302E-1,1.1071608E-1,-1.3197039E-1,1.7524223E-1,1.3183403E-1,-1.3099365E-1,-1.6089068E-1,7.883617E-2,-9.262978E-3,-1.505135E-1,-1.9404964E-1,1.225426E-1,-1.3386942E-1,-1.5231189E-2,-1.3347721E-1,1.03244305E-1,-1.2130698E-1,-3.544673E-3,-1.3125668E-1,-1.08395256E-1,-1.4209113E-1,3.5390858E-2,-3.0038109E-2,-1.3591214E-1,-7.3328644E-2,-1.3461208E-1,1.3337635E-1,-1.4191568E-1,8.2835995E-2,-1.2557314E-1,5.981149E-2,-9.081634E-2,-7.964691E-2,1.22671425E-1,-4.17322E-3,-1.3335848E-1,-6.9904536E-2,4.181544E-2,-1.4348824E-1,1.23023055E-1,-1.2847488E-1,8.625975E-2],"split_indices":[14,4,4,10,10,7,12,29,1,12,4,20,26,8,14,0,16,0,26,11,0,16,10,1,14,13,16,14,14,8,29,3,0,18,11,0,7,21,18,11,0,29,4,11,21,15,14,14,19,3,8,25,15,11,0,28,9,0,0,0,0,0,0,0,0,0,0,0,0,0,0,0,0,0,0,0,0,0,0,0,0,0,0,0,0,0,0,0,0,0,0,0,0,0,0,0,0,0,0,0,0],"split_type":[0,0,0,0,0,0,0,0,0,0,0,0,0,0,0,0,0,0,0,0,0,0,0,0,0,0,0,0,0,0,0,0,0,0,0,0,0,0,0,0,0,0,0,0,0,0,0,0,0,0,0,0,0,0,0,0,0,0,0,0,0,0,0,0,0,0,0,0,0,0,0,0,0,0,0,0,0,0,0,0,0,0,0,0,0,0,0,0,0,0,0,0,0,0,0,0,0,0,0,0,0],"sum_hessian":[8.725362E4,3.8765047E4,4.848857E4,9.3290753E2,3.783214E4,3.282889E4,1.5659683E4,3.2051242E2,6.123951E2,3.373816E4,4.093982E3,2.5244445E4,7.584445E3,6.8063433E3,8.853339E3,9.33688E1,2.2714362E2,4.387691E2,1.73626E2,3.3733406E4,4.7506156E0,1.727765E3,2.366217E3,7.7369037E2,2.4470754E4,2.9280376E3,4.656407E3,5.127775E3,1.6785685E3,4.8407886E3,4.0125503E3,2.101334E2,1.701021E1,6.229398E1,1.1133202E2,3.6480837E0,3.372976E4,1.2986636E3,4.2910144E2,2.321049E3,4.5168007E1,5.0021967E2,2.7347073E2,3.9714775E3,2.0499277E4,2.0296388E3,8.983987E2,4.388643E3,2.677643E2,3.3795088E3,1.748266E3,1.8259724E2,1.4959713E3,3.5213335E3,1.3194551E3,1.3474313E2,3.8778071E3,2.0094466E2,9.18876E0,1.3201487E1,4.9092495E1,1.0528102E2,6.051005E0,3.372803E4,1.7268813E0,1.12318146E2,1.1863453E3,7.0012024E1,3.5908942E2,1.214921E1,2.3088997E3,4.6119565E2,3.9024036E1,1.0338914E2,1.7008159E2,3.7418867E3,2.2959102E2,1.9874688E4,6.245897E2,3.6136438E2,1.6682744E3,8.038775E1,8.180109E2,1.7659073E2,4.2120522E3,1.3696278E2,1.3080151E2,3.1915186E3,1.8799036E2,5.027618E2,1.2455042E3,3.981814E1,1.4277911E2,1.7798553E2,1.3179857E3,2.4861492E3,1.0351844E3,4.730327E1,8.7439865E1,3.8403186E3,3.7488575E1],"tree_param":{"num_deleted":"0","num_feature":"30","num_nodes":"101","size_leaf_vector":"1"}},{"base_weights":[1.18799086E-4,1.1790469E0,-9.109865E-1,1.2768902E0,4.774766E-1,-1.1292207E0,-4.6721533E-1,1.2782136E0,-1.2378645E-1,-1.5272117E-1,1.1130753E0,-1.218581E0,-8.5861474E-1,-2.0055708E-2,-8.753001E-1,-1.3713181E-1,1.2787851E0,3.0139413E-1,-1.2821941E0,-1.7004286E0,1.1698371E0,-8.091512E-1,-1.2364701E0,-3.182174E-1,-1.1886308E0,6.299998E-1,-4.195977E-1,-5.1202196E-1,-1.1012757E0,1.2811052E0,1.1309035E0,7.4945986E-1,-9.7003657E-1,-1.4239221E0,9.453528E-1,-2.2422009E0,2.7204508E-1,-1.056271E0,1.2159388E0,-9.837629E-1,9.187959E-1,-1.0901191E0,-1.2696412E0,-8.239887E-1,3.1332326E-1,-1.2576112E0,1.1137528E-1,-1.3523546E0,8.041302E-1,1.23761706E-1,-8.9954E-1,-1.0703704E0,7.819244E-2,-4.3148775E-2,-1.1762505E0,1.2811725E-1,8.457328E-3,1.2104392E-1,-2.7451977E-1,-9.849349E-2,1.1852028E-1,1.1089889E-1,-1.4811583E-1,-1.297117E-1,-1.546314E-1,1.285709E-1,-1.251204E-1,-2.5336024E-1,-1.21751465E-1,1.130937E-1,-1.3804762E-1,-1.9712076E-1,1.2441412E-1,-2.121284E-1,1.2467682E-1,-1.2898377E-1,-2.4977745E-2,-1.2711483E-1,1.5607657E-1,-1.284226E-1,-7.721903E-2,-1.2748145E-1,-1.14325665E-1,3.3933062E-2,-1.3356696E-1,-1.1793276E-1,6.684719E-2,-5.161164E-2,-1.2900783E-1,1.4342095E-1,-1.19810954E-1,4.1219026E-2,-1.4213072E-1,8.8643186E-2,-1.519388E-1,4.378571E-2,-1.3792807E-1,7.0729926E-3,-1.168221E-1,7.493096E-2,-1.1605122E-1,7.34007E-2,-8.4622696E-2,1.6107266E-1,-1.2675248E-1,-1.8519295E-2,-1.2385189E-1],"categories":[],"categories_nodes":[],"categories_segments":[],"categories_sizes":[],"default_left":[0,0,0,0,0,0,0,0,0,0,0,0,0,0,0,0,0,0,0,0,0,0,0,0,0,0,0,0,0,0,0,0,0,0,0,0,0,0,0,0,0,0,0,0,0,0,0,0,0,0,0,0,0,0,0,0,0,0,0,0,0,0,0,0,0,0,0,0,0,0,0,0,0,0,0,0,0,0,0,0,0,0,0,0,0,0,0,0,0,0,0,0,0,0,0,0,0,0,0,0,0,0,0,0,0,0,0],"id":8,"left_children":[1,3,5,7,9,11,13,15,-1,17,19,21,23,25,27,-1,29,31,33,35,37,39,41,43,45,47,49,51,53,55,57,59,61,63,65,67,69,71,73,75,77,79,81,83,85,87,89,91,93,95,97,99,101,103,105,-1,-1,-1,-1,-1,-1,-1,-1,-1,-1,-1,-1,-1,-1,-1,-1,-1,-1,-1,-1,-1,-1,-1,-1,-1,-1,-1,-1,-1,-1,-1,-1,-1,-1,-1,-1,-1,-1,-1,-1,-1,-1,-1,-1,-1,-1,-1,-1,-1,-1,-1,-1],"loss_changes":[8.826896E4,2.4584531E3,4.48866E3,1.0621484E2,1.7570624E3,7.503242E2,2.7887288E3,4.9335938E1,0E0,1.1304941E3,3.5074927E2,1.7007031E2,1.3758657E3,1.8944825E3,6.5538184E2,0E0,9.328125E0,8.9644135E2,2.0087915E2,4.719693E1,2.210354E2,2.967942E2,1.0724609E2,9.3526483E2,4.2974805E2,9.5955005E2,1.1782023E3,1.01051385E3,3.9068262E2,2.3789062E0,1.5555066E2,8.8022144E2,4.3747684E2,7.222534E0,3.0322952E1,7.1598663E0,1.6160086E1,9.501822E1,2.1852417E2,1.9988043E2,1.2924571E2,2.5460205E2,1.0466797E1,9.681797E2,6.912567E2,1.0885742E2,4.2146103E2,2.7910309E1,4.8956702E2,1.00129675E3,6.25453E2,2.5932532E2,9.048184E2,6.640637E2,2.8360156E2,0E0,0E0,0E0,0E0,0E0,0E0,0E0,0E0,0E0,0E0,0E0,0E0,0E0,0E0,0E0,0E0,0E0,0E0,0E0,0E0,0E0,0E0,0E0,0E0,0E0,0E0,0E0,0E0,0E0,0E0,0E0,0E0,0E0,0E0,0E0,0E0,0E0,0E0,0E0,0E0,0E0,0E0,0E0,0E0,0E0,0E0,0E0,0E0,0E0,0E0,0E0,0E0],"parents":[2147483647,0,0,1,1,2,2,3,3,4,4,5,5,6,6,7,7,9,9,10,10,11,11,12,12,13,13,14,14,16,16,17,17,18,18,19,19,20,20,21,21,22,22,23,23,24,24,25,25,26,26,27,27,28,28,29,29,30,30,31,31,32,32,33,33,34,34,35,35,36,36,37,37,38,38,39,39,40,40,41,41,42,42,43,43,44,44,45,45,46,46,47,47,48,48,49,49,50,50,51,51,52,52,53,53,54,54],"right_children":[2,4,6,8,10,12,14,16,-1,18,20,22,24,26,28,-1,30,32,34,36,38,40,42,44,46,48,50,52,54,56,58,60,62,64,66,68,70,72,74,76,78,80,82,84,86,88,90,92,94,96,98,100,102,104,106,-1,-1,-1,-1,-1,-1,-1,-1,-1,-1,-1,-1,-1,-1,-1,-1,-1,-1,-1,-1,-1,-1,-1,-1,-1,-1,-1,-1,-1,-1,-1,-1,-1,-1,-1,-1,-1,-1,-1,-1,-1,-1,-1,-1,-1,-1,-1,-1,-1,-1,-1,-1],"split_conditions":[-1.7873995E0,-1.6640327E0,7.4612343E-1,5.685658E-1,1.8121799E0,6.646638E-1,-9.7759746E-2,-3.3477518E-1,-1.2378645E-1,-1.19669E-1,-9.2204434E-1,-6.539859E-1,-2.1019699E-1,-3.131819E-1,-5.195815E-2,-1.3713181E-1,2.2006345E0,2.8833142E-2,2.4706366E0,1.6166362E-1,-2.4450805E-2,1.3244075E0,-5.5908054E-1,-5.8223367E-2,9.0741587E-1,-1.1099027E0,-1.18838035E-1,3.734465E-1,-1.4400095E0,3.6845422E-1,1.4761281E0,-2.1087628E-2,-4.5299473E0,-1.8707135E-1,-7.323003E-1,6.4941305E-1,-1.3786236E0,1.7971213E0,4.4838166E-1,9.876323E-2,7.82556E-1,-3.6594678E-2,5.1408064E-1,-2.566302E-1,-2.1167442E-1,-1.3912377E0,-1.2443585E0,-1.5305136E0,1.89732E0,4.7971246E-1,-1.5311362E0,-7.8681173E0,1.0139554E-1,-2.4020064E-1,-3.492713E-1,1.2811725E-1,8.457328E-3,1.2104392E-1,-2.7451977E-1,-9.849349E-2,1.1852028E-1,1.1089889E-1,-1.4811583E-1,-1.297117E-1,-1.546314E-1,1.285709E-1,-1.251204E-1,-2.5336024E-1,-1.21751465E-1,1.130937E-1,-1.3804762E-1,-1.9712076E-1,1.2441412E-1,-2.121284E-1,1.2467682E-1,-1.2898377E-1,-2.4977745E-2,-1.2711483E-1,1.5607657E-1,-1.284226E-1,-7.721903E-2,-1.2748145E-1,-1.14325665E-1,3.3933062E-2,-1.3356696E-1,-1.1793276E-1,6.684719E-2,-5.161164E-2,-1.2900783E-1,1.4342095E-1,-1.19810954E-1,4.1219026E-2,-1.4213072E-1,8.8643186E-2,-1.519388E-1,4.378571E-2,-1.3792807E-1,7.0729926E-3,-1.168221E-1,7.493096E-2,-1.1605122E-1,7.34007E-2,-8.4622696E-2,1.6107266E-1,-1.2675248E-1,-1.8519295E-2,-1.2385189E-1],"split_indices":[14,12,4,10,4,7,12,11,0,26,22,20,26,14,21,0,17,27,21,29,28,22,14,17,16,11,8,25,13,3,13,27,14,4,13,10,15,20,18,4,21,4,21,2,25,14,13,9,3,13,19,8,9,8,29,0,0,0,0,0,0,0,0,0,0,0,0,0,0,0,0,0,0,0,0,0,0,0,0,0,0,0,0,0,0,0,0,0,0,0,0,0,0,0,0,0,0,0,0,0,0,0,0,0,0,0,0],"split_type":[0,0,0,0,0,0,0,0,0,0,0,0,0,0,0,0,0,0,0,0,0,0,0,0,0,0,0,0,0,0,0,0,0,0,0,0,0,0,0,0,0,0,0,0,0,0,0,0,0,0,0,0,0,0,0,0,0,0,0,0,0,0,0,0,0,0,0,0,0,0,0,0,0,0,0,0,0,0,0,0,0,0,0,0,0,0,0,0,0,0,0,0,0,0,0,0,0,0,0,0,0,0,0,0,0,0,0],"sum_hessian":[8.217535E4,3.5822457E4,4.6352895E4,3.1437287E4,4.385169E3,3.1071336E4,1.5281559E4,3.1421244E4,1.6044453E1,2.2023213E3,2.1828477E3,2.3355363E4,7.7159736E3,7.2921836E3,7.989375E3,6.2597156E0,3.1414984E4,1.5712988E3,6.310224E2,4.2594955E1,2.1402527E3,9.79679E2,2.2375684E4,2.9262458E3,4.7897275E3,2.7756384E3,4.5165454E3,3.065134E3,4.924241E3,3.0922201E4,4.927832E2,1.1621539E3,4.091449E2,5.936144E2,3.7408005E1,3.3309273E1,9.285685E0,4.297985E1,2.097273E3,8.9015784E2,8.952119E1,4.140709E3,1.8234975E4,1.6247529E3,1.301493E3,4.548414E3,2.4131331E2,2.2357901E2,2.5520593E3,2.118669E3,2.3978765E3,1.5746687E3,1.4904653E3,3.2593008E2,4.598311E3,3.0920393E4,1.8086481E0,4.8354874E2,9.234472E0,2.330964E2,9.2905756E2,8.0506996E1,3.286379E2,2.9724728E2,2.963671E2,3.2748325E1,4.659678E0,2.4787584E1,8.5216875E0,6.317708E0,2.9679766E0,3.0852198E1,1.2127653E1,1.8576645E1,2.0786963E3,6.276628E2,2.6249503E2,2.0071484E1,6.94497E1,2.5691262E3,1.5715826E3,1.750919E4,7.257855E2,4.9643414E2,1.1283187E3,2.4970204E2,1.051791E3,1.9151141E2,4.356903E3,1.1999738E2,1.21315926E2,8.220946E0,2.1535806E2,2.4653523E3,8.670712E1,1.7530396E3,3.656294E2,5.2016724E2,1.8777094E3,7.397772E1,1.500691E3,8.7202625E2,6.184391E2,1.385128E2,1.874173E2,2.7206873E2,4.326242E3],"tree_param":{"num_deleted":"0","num_feature":"30","num_nodes":"107","size_leaf_vector":"1"}},{"base_weights":[1.0199291E-4,1.1336285E0,-8.79967E-1,1.2421542E0,4.272595E-1,-1.0953825E0,-4.5161495E-1,1.2436147E0,-1.2522672E-1,-1.6188046E-1,1.077444E0,-1.1841171E0,-8.207905E-1,-1.8742457E-1,-1.0876813E0,-1.3172919E-1,1.2442902E0,2.8315234E-1,-1.1958047E0,-1.071681E0,1.1441399E0,-7.812122E-1,-1.2036695E0,-1.0949816E0,-1.6319929E-1,4.42859E-1,-4.984493E-1,-1.1272602E0,1.2074703E0,1.2470543E0,1.0724826E0,7.1279943E-1,-9.664762E-1,-1.3084848E0,8.733554E-1,1.2097905E-1,-1.7413431E0,-1.9013679E0,1.1836855E0,-1.2602678E-1,-1.8998162E-1,-1.0615474E0,-1.23538E0,-5.653103E-1,-1.221063E0,-1.1417574E0,3.3905265E-1,8.1592906E-1,-5.8372253E-1,-9.5300004E-2,-1.0237985E0,1.3398249E0,-1.1449203E0,1.9264001E0,-1.3642947E-1,-1.9188983E-2,1.24714315E-1,1.1600112E-1,-2.3606613E-1,-8.703881E-2,1.1419429E-1,6.780109E-2,-1.487897E-1,-1.3168274E-1,6.6289745E-2,1.2385203E-1,-1.2034303E-1,-2.4060932E-1,-1.22388564E-1,-2.1581948E-1,-1.18713394E-1,-1.4279555E-1,1.2126931E-1,4.4150315E-2,-1.4063515E-1,-1.1267119E-1,-3.0379496E-3,-1.241174E-1,-1.1489415E-1,-1.2220655E-1,8.174521E-3,-1.22583985E-1,1.1528058E-1,-1.2815474E-1,7.089589E-2,6.503677E-2,-1.23663746E-1,9.4020665E-2,-1.6782631E-1,1.01031445E-1,-1.1323442E-1,3.267091E-2,-7.3327206E-2,-4.851903E-2,-1.29447E-1,-9.305214E-2,1.4647092E-1,-1.2618898E-1,-7.752161E-2,2.091962E-1,-1.020779E-1],"categories":[],"categories_nodes":[],"categories_segments":[],"categories_sizes":[],"default_left":[0,0,0,0,0,0,0,0,0,0,0,0,0,0,0,0,0,0,0,0,0,0,0,0,0,0,0,0,0,0,0,0,0,0,0,0,0,0,0,0,0,0,0,0,0,0,0,0,0,0,0,0,0,0,0,0,0,0,0,0,0,0,0,0,0,0,0,0,0,0,0,0,0,0,0,0,0,0,0,0,0,0,0,0,0,0,0,0,0,0,0,0,0,0,0,0,0,0,0,0,0],"id":9,"left_children":[1,3,5,7,9,11,13,15,-1,17,19,21,23,25,27,-1,29,31,33,35,37,39,41,43,45,47,49,51,53,55,57,59,61,63,65,-1,67,69,71,-1,73,75,77,79,81,83,85,87,89,91,93,95,97,99,-1,-1,-1,-1,-1,-1,-1,-1,-1,-1,-1,-1,-1,-1,-1,-1,-1,-1,-1,-1,-1,-1,-1,-1,-1,-1,-1,-1,-1,-1,-1,-1,-1,-1,-1,-1,-1,-1,-1,-1,-1,-1,-1,-1,-1,-1,-1],"loss_changes":[7.6961875E4,2.5843281E3,4.0069219E3,1.0802344E2,1.7208761E3,7.031211E2,2.4421292E3,5.217578E1,0E0,1.0851222E3,3.0733276E2,1.7108398E2,1.2728945E3,2.0134977E3,3.8878857E2,0E0,1.2535156E1,8.86011E2,1.6658911E2,1.0110352E2,2.5176587E2,2.868241E2,9.253906E1,3.3206738E2,1.0221185E3,1.3003083E3,1.4564354E3,1.8422656E2,1.371989E2,3.9101562E0,1.438371E2,8.350707E2,3.631301E2,1.1947266E1,2.9737335E1,0E0,1.4427216E1,2.3797455E0,1.5671729E2,0E0,3.4998276E2,2.5570557E2,7.0996094E0,4.0801498E2,4.704248E1,1.8338531E2,6.75069E2,7.7331995E2,7.927792E2,1.0481394E3,4.346748E2,9.9435425E0,1.7908594E2,3.0092834E1,0E0,0E0,0E0,0E0,0E0,0E0,0E0,0E0,0E0,0E0,0E0,0E0,0E0,0E0,0E0,0E0,0E0,0E0,0E0,0E0,0E0,0E0,0E0,0E0,0E0,0E0,0E0,0E0,0E0,0E0,0E0,0E0,0E0,0E0,0E0,0E0,0E0,0E0,0E0,0E0,0E0,0E0,0E0,0E0,0E0,0E0,0E0],"parents":[2147483647,0,0,1,1,2,2,3,3,4,4,5,5,6,6,7,7,9,9,10,10,11,11,12,12,13,13,14,14,16,16,17,17,18,18,19,19,20,20,21,21,22,22,23,23,24,24,25,25,26,26,27,27,28,28,29,29,30,30,31,31,32,32,33,33,34,34,36,36,37,37,38,38,40,40,41,41,42,42,43,43,44,44,45,45,46,46,47,47,48,48,49,49,50,50,51,51,52,52,53,53],"right_children":[2,4,6,8,10,12,14,16,-1,18,20,22,24,26,28,-1,30,32,34,36,38,40,42,44,46,48,50,52,54,56,58,60,62,64,66,-1,68,70,72,-1,74,76,78,80,82,84,86,88,90,92,94,96,98,100,-1,-1,-1,-1,-1,-1,-1,-1,-1,-1,-1,-1,-1,-1,-1,-1,-1,-1,-1,-1,-1,-1,-1,-1,-1,-1,-1,-1,-1,-1,-1,-1,-1,-1,-1,-1,-1,-1,-1,-1,-1,-1,-1,-1,-1,-1,-1],"split_conditions":[-1.6719847E0,-1.6640327E0,7.4612343E-1,5.685658E-1,1.8121799E0,6.822981E-1,1.7261843E-1,-3.3477518E-1,-1.2522672E-1,-1.19669E-1,5.4893297E-1,-6.2618667E-1,5.6859426E-2,-4.2521206E-1,5.342759E0,-1.3172919E-1,2.2006345E0,3.0274196E-2,3.1055589E0,-2.9619129E0,-2.4450805E-2,-2.160348E-1,-5.5908054E-1,-2.6583976E-1,6.861706E-2,-1.1543248E-2,7.987349E-1,-3.7973351E0,-9.838126E-1,-4.7117257E-1,1.4761281E0,-2.39773E-2,-7.0835084E-1,1.7245178E0,-7.323003E-1,1.2097905E-1,-6.8381125E-1,6.2425137E-1,-9.891115E-1,-1.2602678E-1,2.4717587E-1,1.4682266E0,5.8718747E-1,2.2108094E-1,3.7911456E0,1.4781014E0,1.06837325E-1,1.2621938E0,-1.3592067E0,-2.0802918E-1,7.760542E-2,-1.2813051E0,1.0754286E0,-4.513874E-2,-1.3642947E-1,-1.9188983E-2,1.24714315E-1,1.1600112E-1,-2.3606613E-1,-8.703881E-2,1.1419429E-1,6.780109E-2,-1.487897E-1,-1.3168274E-1,6.6289745E-2,1.2385203E-1,-1.2034303E-1,-2.4060932E-1,-1.22388564E-1,-2.1581948E-1,-1.18713394E-1,-1.4279555E-1,1.2126931E-1,4.4150315E-2,-1.4063515E-1,-1.1267119E-1,-3.0379496E-3,-1.241174E-1,-1.1489415E-1,-1.2220655E-1,8.174521E-3,-1.22583985E-1,1.1528058E-1,-1.2815474E-1,7.089589E-2,6.503677E-2,-1.23663746E-1,9.4020665E-2,-1.6782631E-1,1.01031445E-1,-1.1323442E-1,3.267091E-2,-7.3327206E-2,-4.851903E-2,-1.29447E-1,-9.305214E-2,1.4647092E-1,-1.2618898E-1,-7.752161E-2,2.091962E-1,-1.020779E-1],"split_indices":[14,12,4,10,4,7,8,11,0,26,18,20,4,14,4,0,17,27,21,7,28,4,14,5,18,13,1,17,25,4,13,27,22,4,13,0,19,10,22,0,12,11,4,15,7,22,13,1,12,12,14,6,1,12,0,0,0,0,0,0,0,0,0,0,0,0,0,0,0,0,0,0,0,0,0,0,0,0,0,0,0,0,0,0,0,0,0,0,0,0,0,0,0,0,0,0,0,0,0,0,0],"split_type":[0,0,0,0,0,0,0,0,0,0,0,0,0,0,0,0,0,0,0,0,0,0,0,0,0,0,0,0,0,0,0,0,0,0,0,0,0,0,0,0,0,0,0,0,0,0,0,0,0,0,0,0,0,0,0,0,0,0,0,0,0,0,0,0,0,0,0,0,0,0,0,0,0,0,0,0,0,0,0,0,0,0,0,0,0,0,0,0,0,0,0,0,0,0,0,0,0,0,0,0,0],"sum_hessian":[7.714645E4,3.371777E4,4.3428684E4,2.9226658E4,4.4911123E3,2.8895676E4,1.453301E4,2.9210059E4,1.6599495E1,2.3565579E3,2.1345547E3,2.1836033E4,7.059641E3,1.0269051E4,4.2639595E3,7.1895065E0,2.920287E4,1.647954E3,7.0860394E2,6.3796364E1,2.0707583E3,1.0125268E3,2.0823508E4,4.9817656E3,2.0778755E3,3.392934E3,6.876116E3,4.192176E3,7.178347E1,2.8734318E4,4.6854916E2,1.2266403E3,4.2131366E2,6.7235706E2,3.624685E1,1.4293451E1,4.9502914E1,2.594042E1,2.0448179E3,5.58699E2,4.5382782E2,3.8049004E3,1.7018607E4,9.5889734E2,4.0228682E3,7.0432904E2,1.3735465E3,2.488715E3,9.04219E2,3.89121E3,2.9849062E3,2.9263403E1,4.1629126E3,5.62968E1,1.5486672E1,1.6399684E0,2.873268E4,4.5754605E2,1.100309E1,2.6137024E2,9.652701E2,1.0135479E2,3.1995886E2,6.698544E2,2.5026908E0,3.1169838E1,5.077011E0,2.0070095E1,2.9432817E1,1.7592682E1,8.347736E0,2.1932564E1,2.0228853E3,2.9915628E2,1.5467152E2,3.5786555E3,2.2624493E2,1.593699E4,1.0816162E3,4.7544083E2,4.8345648E2,4.015272E3,7.5962005E0,6.551512E2,4.917789E1,1.1474314E3,2.2611514E2,2.3711895E3,1.1752569E2,2.3130727E2,6.729117E2,2.3423005E3,1.5489094E3,9.992651E2,1.9856412E3,1.1894051E0,2.8073997E1,3.1605457E3,1.0023668E3,5.357721E1,2.7195892E0],"tree_param":{"num_deleted":"0","num_feature":"30","num_nodes":"101","size_leaf_vector":"1"}},{"base_weights":[1.1131291E-4,1.1038778E0,-8.426539E-1,1.2127123E0,4.089241E-1,-1.0593973E0,-4.2411986E-1,1.2141477E0,-1.21489264E-1,-1.5395863E-1,1.0408443E0,-1.1504557E0,-7.828467E-1,-1.7491832E-1,-1.0402851E0,-1.2648414E-1,1.2148181E0,2.6670495E-1,-1.1536665E0,-9.9647987E-1,1.1065657E0,-7.429582E-1,-1.1706973E0,-3.064357E-1,-1.1431279E0,-2.1368511E-2,-1.3240151E0,-1.0787945E0,1.1049585E0,1.2177328E0,1.035598E0,-1.0324292E0,6.407476E-1,-1.2625179E0,8.3946383E-1,1.1675515E-1,-1.6061136E0,-1.7580373E0,1.1456299E0,-1.22916855E-1,-1.7607251E-1,-1.0194972E0,-1.2049421E0,-6.747502E-1,4.325594E-1,-1.2241503E0,1.9745958E-1,3.524927E-1,-4.8181966E-1,-1.3309776E0,-2.8086033E-1,-8.3060575E-1,-1.2766813E0,1.7481408E0,-1.3086759E-1,1.2178373E-1,-1.7234394E-2,1.1230355E-1,-2.0853524E-1,-1.426074E-1,8.776345E-2,9.4826855E-2,-1.1135977E-1,-1.3270584E-1,-9.399049E-2,1.1955366E-1,-1.15712576E-1,5.6960355E-3,-1.7366324E-1,-1.9532357E-1,-1.14788584E-1,-1.2797086E-1,1.1747433E-1,-1.1600243E-1,5.505761E-2,-1.0863817E-1,-2.7375682E-3,-1.2099975E-1,-1.0808923E-1,-1.1714567E-1,2.8282864E-2,7.9785936E-2,-1.4976142E-1,-9.5127106E-2,-1.2435266E-1,1.19071126E-1,-1.2845252E-1,6.776904E-2,-3.5716172E-2,1.8541671E-2,-8.443836E-2,-1.41159E-1,-1.2845318E-1,2.1374343E-1,-1.3835035E-1,-1.158364E-1,-2.889715E-2,9.630444E-2,-1.2790768E-1,1.8966073E-1,-9.808611E-2],"categories":[],"categories_nodes":[],"categories_segments":[],"categories_sizes":[],"default_left":[0,0,0,0,0,0,0,0,0,0,0,0,0,0,0,0,0,0,0,0,0,0,0,0,0,0,0,0,0,0,0,0,0,0,0,0,0,0,0,0,0,0,0,0,0,0,0,0,0,0,0,0,0,0,0,0,0,0,0,0,0,0,0,0,0,0,0,0,0,0,0,0,0,0,0,0,0,0,0,0,0,0,0,0,0,0,0,0,0,0,0,0,0,0,0,0,0,0,0,0,0],"id":10,"left_children":[1,3,5,7,9,11,13,15,-1,17,19,21,23,25,27,-1,29,31,33,35,37,39,41,43,45,47,49,51,53,55,57,59,61,63,65,-1,67,69,71,-1,73,75,77,79,81,83,85,87,89,91,93,95,97,99,-1,-1,-1,-1,-1,-1,-1,-1,-1,-1,-1,-1,-1,-1,-1,-1,-1,-1,-1,-1,-1,-1,-1,-1,-1,-1,-1,-1,-1,-1,-1,-1,-1,-1,-1,-1,-1,-1,-1,-1,-1,-1,-1,-1,-1,-1,-1],"loss_changes":[6.723284E4,2.3663242E3,3.7173906E3,9.575E1,1.5078186E3,6.790293E2,2.1471333E3,4.6476562E1,0E0,9.434245E2,2.684895E2,1.666543E2,1.148147E3,1.7570986E3,3.338667E2,0E0,1.2859375E1,7.6807104E2,1.4519952E2,8.4900375E1,2.18552E2,2.654483E2,9.894922E1,7.848929E2,4.140327E2,1.5125864E3,8.1521E0,1.9325342E2,1.13296135E2,4.078125E0,1.2221756E2,2.6699008E2,6.629258E2,1.1878052E1,2.6269825E1,0E0,1.0848198E1,9.05426E-1,1.3634082E2,0E0,3.196502E2,2.3747876E2,8.582031E0,9.155468E2,6.7768286E2,1.7812988E1,3.2239825E2,1.1193671E3,9.52668E2,2.5515137E0,2.7089941E1,3.117561E2,1.3032471E1,2.4910019E1,0E0,0E0,0E0,0E0,0E0,0E0,0E0,0E0,0E0,0E0,0E0,0E0,0E0,0E0,0E0,0E0,0E0,0E0,0E0,0E0,0E0,0E0,0E0,0E0,0E0,0E0,0E0,0E0,0E0,0E0,0E0,0E0,0E0,0E0,0E0,0E0,0E0,0E0,0E0,0E0,0E0,0E0,0E0,0E0,0E0,0E0,0E0],"parents":[2147483647,0,0,1,1,2,2,3,3,4,4,5,5,6,6,7,7,9,9,10,10,11,11,12,12,13,13,14,14,16,16,17,17,18,18,19,19,20,20,21,21,22,22,23,23,24,24,25,25,26,26,27,27,28,28,29,29,30,30,31,31,32,32,33,33,34,34,36,36,37,37,38,38,40,40,41,41,42,42,43,43,44,44,45,45,46,46,47,47,48,48,49,49,50,50,51,51,52,52,53,53],"right_children":[2,4,6,8,10,12,14,16,-1,18,20,22,24,26,28,-1,30,32,34,36,38,40,42,44,46,48,50,52,54,56,58,60,62,64,66,-1,68,70,72,-1,74,76,78,80,82,84,86,88,90,92,94,96,98,100,-1,-1,-1,-1,-1,-1,-1,-1,-1,-1,-1,-1,-1,-1,-1,-1,-1,-1,-1,-1,-1,-1,-1,-1,-1,-1,-1,-1,-1,-1,-1,-1,-1,-1,-1,-1,-1,-1,-1,-1,-1,-1,-1,-1,-1,-1,-1],"split_conditions":[-1.6719847E0,-1.6640327E0,7.4612343E-1,5.685658E-1,1.8121799E0,6.822981E-1,1.7261843E-1,-3.3477518E-1,-1.21489264E-1,-1.19669E-1,5.4893297E-1,-6.2618667E-1,-1.6926998E-1,1.3082377E0,5.342759E0,-1.2648414E-1,2.2006345E0,-1.7970555E-1,3.1055589E0,-2.9619129E0,-2.4450805E-2,-2.160348E-1,-5.5908054E-1,6.5512794E-1,8.8349646E-1,2.9441517E-2,1.6796966E0,3.0274196E-2,-9.838126E-1,1.6794947E0,1.4761281E0,2.1170301E0,-3.475392E-2,-1.7873995E0,-7.323003E-1,1.1675515E-1,-1.3377296E0,6.2425137E-1,-9.891115E-1,-1.22916855E-1,-1.6285025E-2,1.4682266E0,5.1408064E-1,2.0315346E-1,9.276846E-1,-9.5895284E-1,-9.759147E-1,7.863951E-2,-3.225241E-1,-9.7759746E-2,-1.3912377E0,5.344446E-1,-3.7973351E0,-4.513874E-2,-1.3086759E-1,1.2178373E-1,-1.7234394E-2,1.1230355E-1,-2.0853524E-1,-1.426074E-1,8.776345E-2,9.4826855E-2,-1.1135977E-1,-1.3270584E-1,-9.399049E-2,1.1955366E-1,-1.15712576E-1,5.6960355E-3,-1.7366324E-1,-1.9532357E-1,-1.14788584E-1,-1.2797086E-1,1.1747433E-1,-1.1600243E-1,5.505761E-2,-1.0863817E-1,-2.7375682E-3,-1.2099975E-1,-1.0808923E-1,-1.1714567E-1,2.8282864E-2,7.9785936E-2,-1.4976142E-1,-9.5127106E-2,-1.2435266E-1,1.19071126E-1,-1.2845252E-1,6.776904E-2,-3.5716172E-2,1.8541671E-2,-8.443836E-2,-1.41159E-1,-1.2845318E-1,2.1374343E-1,-1.3835035E-1,-1.158364E-1,-2.889715E-2,9.630444E-2,-1.2790768E-1,1.8966073E-1,-9.808611E-2],"split_indices":[14,12,4,10,4,7,8,11,0,26,18,20,26,1,4,0,17,9,21,7,28,4,14,29,16,14,5,27,25,16,13,7,10,14,13,0,13,10,22,0,28,11,21,17,6,19,13,13,29,12,14,11,17,12,0,0,0,0,0,0,0,0,0,0,0,0,0,0,0,0,0,0,0,0,0,0,0,0,0,0,0,0,0,0,0,0,0,0,0,0,0,0,0,0,0,0,0,0,0,0,0],"split_type":[0,0,0,0,0,0,0,0,0,0,0,0,0,0,0,0,0,0,0,0,0,0,0,0,0,0,0,0,0,0,0,0,0,0,0,0,0,0,0,0,0,0,0,0,0,0,0,0,0,0,0,0,0,0,0,0,0,0,0,0,0,0,0,0,0,0,0,0,0,0,0,0,0,0,0,0,0,0,0,0,0,0,0,0,0,0,0,0,0,0,0,0,0,0,0,0,0,0,0,0,0],"sum_hessian":[7.22746E4,3.1291688E4,4.0982918E4,2.7054084E4,4.2376035E3,2.6999387E4,1.398353E4,2.7038596E4,1.5487229E1,2.2416292E3,1.9959744E3,2.0309146E4,6.69024E3,9.957577E3,4.0259531E3,6.8004746E0,2.7031797E4,1.5782543E3,6.6337494E2,6.1932823E1,1.9340415E3,9.6286084E2,1.9346287E4,2.8816267E3,3.8086133E3,8.784724E3,1.1728535E3,3.9554458E3,7.0507286E1,2.659351E4,4.3828592E2,3.52429E2,1.2258253E3,6.2936957E2,3.400541E1,1.3411286E1,4.8521538E1,2.5427412E1,1.908614E3,5.1768286E2,4.4517798E2,3.578224E3,1.57680625E4,1.923195E3,9.584318E2,3.5916294E3,2.1698392E2,4.848357E3,3.9363665E3,1.1648031E3,8.050307E0,1.7570098E3,2.198436E3,5.5889614E1,1.4617672E1,2.6591633E4,1.8768106E0,4.2696414E2,1.1321771E1,2.92418E2,6.0010998E1,1.0433882E3,1.824371E2,5.2185614E2,1.07513374E2,2.9199217E1,4.806193E0,3.5719001E0,4.4949635E1,1.7596687E1,7.8307257E0,2.2129475E1,1.8864846E3,1.8885449E2,2.563235E2,3.3521423E3,2.260819E2,1.514221E4,6.2585223E2,1.2661869E3,6.570081E2,8.06401E2,1.5203084E2,2.4144278E2,3.3501865E3,1.3003128E2,8.695265E1,3.3248127E3,1.5235441E3,1.3860568E3,2.5503096E3,4.1504657E2,7.497566E2,2.227198E0,5.823109E0,1.0939133E3,6.630964E2,1.9204216E0,2.1965156E3,5.32952E1,2.5944126E0],"tree_param":{"num_deleted":"0","num_feature":"30","num_nodes":"101","size_leaf_vector":"1"}},{"base_weights":[1.0964771E-4,1.0671567E0,-8.1411755E-1,1.1869571E0,3.6939135E-1,-9.440987E-1,-1.269216E-1,1.1884996E0,-1.2620158E-1,-1.4633815E-1,1.0076274E0,-1.152036E0,-7.425214E-1,3.9684328E-1,-5.541766E-1,-1.2148698E-1,1.1891905E0,2.5929552E-1,-1.0860046E0,-8.7441325E-1,1.0773921E0,-1.1764315E0,-2.4428621E-1,-1.700874E-1,-9.632968E-1,6.578087E-1,-6.8957716E-1,-1.1744204E0,-7.086792E-2,1.1924738E0,9.9111503E-1,6.83575E-1,-8.5791034E-1,-1.1778356E0,7.853965E-1,1.0390078E0,-1.3918476E0,-1.6382462E0,1.1158223E0,-9.625039E-1,-1.1974151E0,7.202703E-1,-1.2083378E0,4.4269785E-1,-1.0400069E0,-1.1023155E0,-1.115155E-1,-7.023476E-2,9.4479775E-1,-1.2581058E0,9.1787994E-1,-1.3146502E0,-8.389086E-1,-1.222331E0,2.4632096E-1,1.1926037E-1,-9.081759E-2,1.0814144E-1,-1.9016246E-1,-5.667907E-2,1.111957E-1,1.0461976E-1,-1.2637167E-1,-1.2017727E-1,7.109268E-2,1.16101876E-1,-1.12423025E-1,-4.9001317E-2,1.18671775E-1,3.1492498E-2,-1.5944108E-1,-1.7968072E-1,-1.1186653E-1,-1.284278E-1,1.143515E-1,-1.19796455E-1,-9.931379E-3,-1.202096E-1,-8.868524E-2,-1.5609433E-1,1.2703966E-1,-1.2485385E-1,-1.2169048E-2,-1.19014144E-1,7.957887E-2,7.489163E-2,-1.2009158E-1,-1.1447924E-1,1.6410864E-4,-1.21717095E-1,3.920379E-2,2.717263E-2,-1.4717017E-1,-1.6891176E-1,1.0303601E-1,-1.9127006E-2,-1.3440046E-1,1.2518923E-1,-1.602943E-1,-1.8084502E-2,-1.327251E-1,-3.0198852E-3,-1.2338003E-1,6.261313E-2,-1.3499287E-1,8.33353E-2,-7.389323E-2],"categories":[],"categories_nodes":[],"categories_segments":[],"categories_sizes":[],"default_left":[0,0,0,0,0,0,0,0,0,0,0,0,0,0,0,0,0,0,0,0,0,0,0,0,0,0,0,0,0,0,0,0,0,0,0,0,0,0,0,0,0,0,0,0,0,0,0,0,0,0,0,0,0,0,0,0,0,0,0,0,0,0,0,0,0,0,0,0,0,0,0,0,0,0,0,0,0,0,0,0,0,0,0,0,0,0,0,0,0,0,0,0,0,0,0,0,0,0,0,0,0,0,0,0,0,0,0],"id":11,"left_children":[1,3,5,7,9,11,13,15,-1,17,19,21,23,25,27,-1,29,31,33,35,37,39,41,43,45,47,49,51,53,55,57,59,61,63,65,67,69,71,73,75,77,79,81,83,85,87,89,91,93,95,97,99,101,103,105,-1,-1,-1,-1,-1,-1,-1,-1,-1,-1,-1,-1,-1,-1,-1,-1,-1,-1,-1,-1,-1,-1,-1,-1,-1,-1,-1,-1,-1,-1,-1,-1,-1,-1,-1,-1,-1,-1,-1,-1,-1,-1,-1,-1,-1,-1,-1,-1,-1,-1,-1,-1],"loss_changes":[5.8816676E4,2.4488047E3,3.4296387E3,9.596484E1,1.413825E3,1.3525859E3,1.367233E3,4.2941406E1,0E0,9.0602014E2,2.5298242E2,3.516504E2,2.0722598E3,7.787048E2,1.008558E3,0E0,1.5066406E1,7.877157E2,1.24088684E2,6.992398E1,1.9504565E2,6.831836E1,3.88804E2,2.4341672E3,1.4011855E3,4.626261E2,4.8747263E2,6.8225586E1,6.913861E2,7.7851562E0,1.1001782E2,6.4557684E2,3.5483475E2,3.1759155E1,2.5781647E1,4.0359154E0,1.9472137E1,1.517334E-1,1.2284497E2,2.8189075E2,1.9416016E1,2.644755E2,8.978943E0,1.5456636E3,5.441188E2,4.7706055E2,9.255502E2,3.008245E2,3.5961084E2,3.580591E1,1.195592E2,1.4581665E1,1.395535E2,9.727118E1,8.5913074E2,0E0,0E0,0E0,0E0,0E0,0E0,0E0,0E0,0E0,0E0,0E0,0E0,0E0,0E0,0E0,0E0,0E0,0E0,0E0,0E0,0E0,0E0,0E0,0E0,0E0,0E0,0E0,0E0,0E0,0E0,0E0,0E0,0E0,0E0,0E0,0E0,0E0,0E0,0E0,0E0,0E0,0E0,0E0,0E0,0E0,0E0,0E0,0E0,0E0,0E0,0E0,0E0],"parents":[2147483647,0,0,1,1,2,2,3,3,4,4,5,5,6,6,7,7,9,9,10,10,11,11,12,12,13,13,14,14,16,16,17,17,18,18,19,19,20,20,21,21,22,22,23,23,24,24,25,25,26,26,27,27,28,28,29,29,30,30,31,31,32,32,33,33,34,34,35,35,36,36,37,37,38,38,39,39,40,40,41,41,42,42,43,43,44,44,45,45,46,46,47,47,48,48,49,49,50,50,51,51,52,52,53,53,54,54],"right_children":[2,4,6,8,10,12,14,16,-1,18,20,22,24,26,28,-1,30,32,34,36,38,40,42,44,46,48,50,52,54,56,58,60,62,64,66,68,70,72,74,76,78,80,82,84,86,88,90,92,94,96,98,100,102,104,106,-1,-1,-1,-1,-1,-1,-1,-1,-1,-1,-1,-1,-1,-1,-1,-1,-1,-1,-1,-1,-1,-1,-1,-1,-1,-1,-1,-1,-1,-1,-1,-1,-1,-1,-1,-1,-1,-1,-1,-1,-1,-1,-1,-1,-1,-1,-1,-1,-1,-1,-1,-1],"split_conditions":[-1.5853893E0,-1.6640327E0,1.5024844E0,5.685658E-1,1.8121799E0,-1.295377E-2,-1.1281476E-1,-3.9535365E-1,-1.2620158E-1,-1.19669E-1,5.330145E-1,2.1170301E0,-4.2521206E-1,4.3662304E-1,-4.1004424E-3,-1.2148698E-1,2.2006345E0,2.2449745E-2,3.1055589E0,-2.9619129E0,-2.825828E-2,-1.3377296E0,-3.7182477E-1,-3.8645673E-1,5.091978E-1,2.3988284E-1,1.5548651E0,6.6732574E-1,-6.39046E-1,1.7691995E0,1.4761281E0,-2.39773E-2,-4.5299473E0,1.6303505E0,-7.323003E-1,2.429468E-1,-1.278846E0,6.2425137E-1,-1.0203965E0,-2.4443778E-1,1.7537321E0,-1.4998494E0,9.9589187E-1,-1.5967157E-1,-2.934519E0,5.5507696E-1,6.822981E-1,5.4818285E-1,-3.7528718E-1,-3.5019085E-1,-1.5311362E0,-1.4473913E0,-3.0381304E-1,3.512046E-1,-7.911707E-2,1.1926037E-1,-9.081759E-2,1.0814144E-1,-1.9016246E-1,-5.667907E-2,1.111957E-1,1.0461976E-1,-1.2637167E-1,-1.2017727E-1,7.109268E-2,1.16101876E-1,-1.12423025E-1,-4.9001317E-2,1.18671775E-1,3.1492498E-2,-1.5944108E-1,-1.7968072E-1,-1.1186653E-1,-1.284278E-1,1.143515E-1,-1.19796455E-1,-9.931379E-3,-1.202096E-1,-8.868524E-2,-1.5609433E-1,1.2703966E-1,-1.2485385E-1,-1.2169048E-2,-1.19014144E-1,7.957887E-2,7.489163E-2,-1.2009158E-1,-1.1447924E-1,1.6410864E-4,-1.21717095E-1,3.920379E-2,2.717263E-2,-1.4717017E-1,-1.6891176E-1,1.0303601E-1,-1.9127006E-2,-1.3440046E-1,1.2518923E-1,-1.602943E-1,-1.8084502E-2,-1.327251E-1,-3.0198852E-3,-1.2338003E-1,6.261313E-2,-1.3499287E-1,8.33353E-2,-7.389323E-2],"split_indices":[14,12,4,10,4,4,8,11,0,26,18,7,14,13,5,0,17,27,21,7,28,13,26,0,29,22,17,12,17,16,13,27,14,4,13,20,13,10,22,4,7,1,17,18,3,21,7,0,23,29,19,14,29,16,20,0,0,0,0,0,0,0,0,0,0,0,0,0,0,0,0,0,0,0,0,0,0,0,0,0,0,0,0,0,0,0,0,0,0,0,0,0,0,0,0,0,0,0,0,0,0,0,0,0,0,0,0],"split_type":[0,0,0,0,0,0,0,0,0,0,0,0,0,0,0,0,0,0,0,0,0,0,0,0,0,0,0,0,0,0,0,0,0,0,0,0,0,0,0,0,0,0,0,0,0,0,0,0,0,0,0,0,0,0,0,0,0,0,0,0,0,0,0,0,0,0,0,0,0,0,0,0,0,0,0,0,0,0,0,0,0,0,0,0,0,0,0,0,0,0,0,0,0,0,0,0,0,0,0,0,0,0,0,0,0,0,0],"sum_hessian":[6.769529E4,2.9298807E4,3.839648E4,2.5004967E4,4.2938403E3,3.2288777E4,6.107704E3,2.4989742E4,1.5225698E1,2.3752664E3,1.9185739E3,1.5891337E4,1.639744E4,2.743978E3,3.363726E3,6.6764083E0,2.4983064E4,1.659584E3,7.156824E2,6.816466E1,1.8504092E3,1.5475151E4,4.161858E2,4.5644214E3,1.1833019E4,2.212835E3,5.311431E2,1.4725417E3,1.8911844E3,2.4570756E4,4.1230896E2,1.2030802E3,4.5650372E2,6.825593E2,3.312304E1,1.4295036E1,5.3869625E1,2.5239676E1,1.8251694E3,1.3865195E3,1.4088632E4,2.0816481E2,2.0802098E2,2.6782854E3,1.886136E3,1.01724795E4,1.6605392E3,6.258678E2,1.5869672E3,3.9252975E2,1.3861339E2,1.0364366E3,4.3610507E2,4.078281E2,1.4833563E3,2.456967E4,1.0866208E0,4.004352E2,1.1873754E1,3.06919E2,8.9616125E2,7.9921455E1,3.7658228E2,6.743764E2,8.182949E0,2.8006247E1,5.116791E0,1.0551577E0,1.3239879E1,5.6562266E0,4.8213398E1,1.7454792E1,7.784884E0,2.0301172E1,1.8048683E3,1.0890587E3,2.9746085E2,1.3876609E4,2.1202269E2,4.0089184E1,1.6807564E2,2.0045609E2,7.56491E0,4.7576743E2,2.2025178E3,1.553509E2,1.730785E3,9.795542E3,3.7693802E2,5.191722E2,1.141367E3,5.037563E2,1.2211155E2,4.9340714E1,1.5376265E3,2.9490713E1,3.6303906E2,1.2284027E2,1.5773115E1,1.1560763E1,1.0248759E3,1.4343567E2,2.926694E2,2.608188E1,3.8174622E2,9.296236E2,5.537328E2],"tree_param":{"num_deleted":"0","num_feature":"30","num_nodes":"107","size_leaf_vector":"1"}},{"base_weights":[5.5895594E-6,1.0437083E0,-7.8197604E-1,1.1647093E0,3.543453E-1,-9.975406E-1,-3.795139E-1,1.166234E0,-1.22933306E-1,-1.3511238E-1,9.8315865E-1,-1.1519996E0,-8.170581E-1,-1.4626719E-1,-9.8469317E-1,-1.1731297E-1,1.1669232E0,2.4602675E-1,-1.0455551E0,-8.360605E-1,1.0510689E0,-1.1785281E0,-2.2771156E-1,-1.1461492E0,-5.221125E-1,-8.688245E-3,-1.2618889E0,-1.0250044E0,1.0867896E0,1.1704007E0,9.597933E-1,6.3805544E-1,-7.7472866E-1,-1.1338198E0,7.585076E-1,1.0022321E0,-1.3396717E0,1.0841495E0,-2.017476E0,-1.1820673E0,-9.5315E-1,6.8373436E-1,-1.221376E0,-1.1662047E0,2.9819146E-1,-8.7650764E-1,1.0416381E-1,9.588311E-2,-1.4489616E0,-1.3413441E0,-1.217328E0,-1.1987078E0,-7.212366E-1,1.6678292E0,-1.22227035E-1,1.1705347E-1,-8.746245E-2,1.0494526E-1,-1.7424338E-1,-5.196134E-2,1.0500878E-1,1.009689E-1,-1.1882054E-1,-1.1643964E-1,5.780953E-2,1.1262512E-1,-1.08662724E-1,-4.6539508E-2,1.1529491E-1,1.935277E-2,-1.5168044E-1,-1.4258364E-1,1.1072218E-1,-1.3436139E-1,-2.2954345E-1,-9.755323E-2,-1.183201E-1,-1.3005066E-2,-1.1983708E-1,-1.4857358E-1,1.2205439E-1,-4.1991975E-2,-1.2448033E-1,8.756208E-2,-1.1733436E-1,1.2380319E-1,-1.4022756E-1,-1.4547363E-2,-1.0357852E-1,1.0215485E-1,-4.7670264E-2,3.759292E-2,-3.872382E-2,-1.6971909E-1,-1.3252816E-1,-1.6312858E-1,-1.2994327E-1,-1.2259082E-1,1.6615532E-1,3.560544E-2,-1.2154659E-1,-1.0474819E-1,2.6066408E-2,1.8057984E-1,-9.2747316E-2],"categories":[],"categories_nodes":[],"categories_segments":[],"categories_sizes":[],"default_left":[0,0,0,0,0,0,0,0,0,0,0,0,0,0,0,0,0,0,0,0,0,0,0,0,0,0,0,0,0,0,0,0,0,0,0,0,0,0,0,0,0,0,0,0,0,0,0,0,0,0,0,0,0,0,0,0,0,0,0,0,0,0,0,0,0,0,0,0,0,0,0,0,0,0,0,0,0,0,0,0,0,0,0,0,0,0,0,0,0,0,0,0,0,0,0,0,0,0,0,0,0,0,0,0,0],"id":12,"left_children":[1,3,5,7,9,11,13,15,-1,17,19,21,23,25,27,-1,29,31,33,35,37,39,41,43,45,47,49,51,53,55,57,59,61,63,65,67,69,71,73,75,77,79,81,83,85,87,89,91,93,95,97,99,101,103,-1,-1,-1,-1,-1,-1,-1,-1,-1,-1,-1,-1,-1,-1,-1,-1,-1,-1,-1,-1,-1,-1,-1,-1,-1,-1,-1,-1,-1,-1,-1,-1,-1,-1,-1,-1,-1,-1,-1,-1,-1,-1,-1,-1,-1,-1,-1,-1,-1,-1,-1],"loss_changes":[5.1600402E4,2.2584375E3,3.1353105E3,8.552344E1,1.2450793E3,6.551836E2,1.7795936E3,3.8484375E1,0E0,7.898305E2,2.1962073E2,3.1064453E2,1.0532476E3,1.3970029E3,2.939961E2,0E0,1.5457031E1,6.4265784E2,1.07809814E2,6.0845135E1,1.7549255E2,8.705078E0,3.2236694E2,1.4896973E2,1.2713043E3,1.2206447E3,1.9049072E0,1.806997E2,9.251553E1,7.2246094E0,9.524811E1,5.538613E2,3.3007855E2,3.4211304E1,2.2887533E1,3.7203503E0,1.4111267E1,9.943323E1,3.919754E-1,1.6875E0,3.935092E1,2.1820871E2,2.673111E0,7.4793945E1,1.1530835E2,4.2575293E2,1.1039149E3,1.02245386E3,1.4593506E1,2.1239014E0,1.8117493E1,5.7431152E1,4.0208557E2,2.1118805E1,0E0,0E0,0E0,0E0,0E0,0E0,0E0,0E0,0E0,0E0,0E0,0E0,0E0,0E0,0E0,0E0,0E0,0E0,0E0,0E0,0E0,0E0,0E0,0E0,0E0,0E0,0E0,0E0,0E0,0E0,0E0,0E0,0E0,0E0,0E0,0E0,0E0,0E0,0E0,0E0,0E0,0E0,0E0,0E0,0E0,0E0,0E0,0E0,0E0,0E0,0E0],"parents":[2147483647,0,0,1,1,2,2,3,3,4,4,5,5,6,6,7,7,9,9,10,10,11,11,12,12,13,13,14,14,16,16,17,17,18,18,19,19,20,20,21,21,22,22,23,23,24,24,25,25,26,26,27,27,28,28,29,29,30,30,31,31,32,32,33,33,34,34,35,35,36,36,37,37,38,38,39,39,40,40,41,41,42,42,43,43,44,44,45,45,46,46,47,47,48,48,49,49,50,50,51,51,52,52,53,53],"right_children":[2,4,6,8,10,12,14,16,-1,18,20,22,24,26,28,-1,30,32,34,36,38,40,42,44,46,48,50,52,54,56,58,60,62,64,66,68,70,72,74,76,78,80,82,84,86,88,90,92,94,96,98,100,102,104,-1,-1,-1,-1,-1,-1,-1,-1,-1,-1,-1,-1,-1,-1,-1,-1,-1,-1,-1,-1,-1,-1,-1,-1,-1,-1,-1,-1,-1,-1,-1,-1,-1,-1,-1,-1,-1,-1,-1,-1,-1,-1,-1,-1,-1,-1,-1,-1,-1,-1,-1],"split_conditions":[-1.5853893E0,-1.6640327E0,7.691096E-1,5.685658E-1,1.8561944E0,-2.4443778E-1,1.7261843E-1,-3.9535365E-1,-1.22933306E-1,-1.19669E-1,5.330145E-1,2.1170301E0,6.861706E-2,1.3082377E0,5.342759E0,-1.1731297E-1,2.2006345E0,2.2449745E-2,3.1055589E0,-2.9619129E0,4.1912702E-1,1.7537321E0,-3.7775433E-1,2.9915373E0,5.228945E-1,6.9268394E-1,-1.24592826E-1,1.7764565E-1,-9.838126E-1,1.7691995E0,1.4761281E0,-2.39773E-2,-4.5299473E0,1.6303505E0,-7.323003E-1,2.429468E-1,-1.278846E0,-1.0637832E0,4.4806585E-1,-1.5128946E0,-1.1058122E0,-1.4021835E0,-3.431057E-1,-4.271832E0,-6.6112715E-1,-6.2665176E-1,-5.253939E-1,1.4981447E-1,-1.3897392E-1,-4.9794272E-1,1.036663E0,-1.4473913E0,1.0754286E0,-4.513874E-2,-1.22227035E-1,1.1705347E-1,-8.746245E-2,1.0494526E-1,-1.7424338E-1,-5.196134E-2,1.0500878E-1,1.009689E-1,-1.1882054E-1,-1.1643964E-1,5.780953E-2,1.1262512E-1,-1.08662724E-1,-4.6539508E-2,1.1529491E-1,1.935277E-2,-1.5168044E-1,-1.4258364E-1,1.1072218E-1,-1.3436139E-1,-2.2954345E-1,-9.755323E-2,-1.183201E-1,-1.3005066E-2,-1.1983708E-1,-1.4857358E-1,1.2205439E-1,-4.1991975E-2,-1.2448033E-1,8.756208E-2,-1.1733436E-1,1.2380319E-1,-1.4022756E-1,-1.4547363E-2,-1.0357852E-1,1.0215485E-1,-4.7670264E-2,3.759292E-2,-3.872382E-2,-1.6971909E-1,-1.3252816E-1,-1.6312858E-1,-1.2994327E-1,-1.2259082E-1,1.6615532E-1,3.560544E-2,-1.2154659E-1,-1.0474819E-1,2.6066408E-2,1.8057984E-1,-9.2747316E-2],"split_indices":[14,12,4,10,4,4,8,11,0,26,18,7,18,1,4,0,17,27,21,7,8,7,26,7,7,25,12,13,25,16,13,27,14,4,13,20,13,22,5,14,10,1,26,23,16,15,19,14,12,14,2,14,1,12,0,0,0,0,0,0,0,0,0,0,0,0,0,0,0,0,0,0,0,0,0,0,0,0,0,0,0,0,0,0,0,0,0,0,0,0,0,0,0,0,0,0,0,0,0,0,0,0,0,0,0],"split_type":[0,0,0,0,0,0,0,0,0,0,0,0,0,0,0,0,0,0,0,0,0,0,0,0,0,0,0,0,0,0,0,0,0,0,0,0,0,0,0,0,0,0,0,0,0,0,0,0,0,0,0,0,0,0,0,0,0,0,0,0,0,0,0,0,0,0,0,0,0,0,0,0,0,0,0,0,0,0,0,0,0,0,0,0,0,0,0,0,0,0,0,0,0,0,0,0,0,0,0,0,0,0,0,0,0],"sum_hessian":[6.322167E4,2.707912E4,3.614255E4,2.3035164E4,4.0439556E3,2.3535252E4,1.2607298E4,2.3021016E4,1.4149471E1,2.2743923E3,1.7695634E3,1.2679019E4,1.0856233E4,9.1008955E3,3.5064028E3,6.2787166E0,2.3014736E4,1.6037454E3,6.7064703E2,6.3272476E1,1.7062908E3,1.2324998E4,3.5402045E2,5.129742E3,5.7264917E3,8.1026772E3,9.982179E2,3.439966E3,6.643684E1,2.263015E4,3.845857E2,1.1589983E3,4.4474698E2,6.397199E2,3.092711E1,1.3393422E1,4.9879055E1,1.688732E3,1.7558725E1,1.2130267E4,1.9473201E2,1.848121E2,1.6920834E2,5.059678E3,7.0064064E1,3.6567961E3,2.0696953E3,7.555073E3,5.4760425E2,3.4821808E2,6.499998E2,2.1866362E3,1.2533298E3,5.330192E1,1.3134911E1,2.2629096E4,1.0554446E0,3.7282703E2,1.1758673E1,3.0415802E2,8.548403E2,8.339632E1,3.6135068E2,6.2880853E2,1.0911338E1,2.6112402E1,4.814708E0,1.0528898E0,1.2340532E1,5.1561985E0,4.4722855E1,1.4828015E1,1.673904E3,6.831294E0,1.072743E1,7.092308E1,1.2059343E4,4.5049805E1,1.496822E2,3.6308136E1,1.4850397E2,5.343126E0,1.6386522E2,1.72048E1,5.042473E3,4.5299297E1,2.4764769E1,6.5454645E2,3.0022498E3,8.021191E2,1.2675763E3,4.7828613E3,2.7722117E3,1.7787738E2,3.6972687E2,3.9188908E1,3.0902917E2,6.486408E2,1.3590362E0,2.3101494E1,2.1635347E3,9.407053E2,3.1262457E2,5.0900215E1,2.4017088E0],"tree_param":{"num_deleted":"0","num_feature":"30","num_nodes":"105","size_leaf_vector":"1"}},{"base_weights":[-4.822308E-6,1.0225217E0,-7.479699E-1,1.1452111E0,3.3995724E-1,-1.0162697E0,-4.1938758E-1,1.146722E0,-1.19947396E-1,-1.2853469E-1,9.5434475E-1,-1.1303331E0,-8.29012E-1,-3.7372306E-2,-7.5671923E-1,-1.1348613E-1,1.1474112E0,2.389573E-1,-9.9901915E-1,-7.7815986E-1,1.021753E0,-1.1574731E0,-2.1774018E-1,-1.1447634E0,-5.305675E-1,4.8925552E-1,-3.3804238E-1,-6.252102E-1,-1.1588346E0,1.1511025E0,9.305096E-1,6.1025053E-1,-7.343133E-1,-1.0835143E0,7.44294E-1,9.703547E-1,-1.2437172E0,-1.5319613E0,1.0604665E0,-1.1613128E0,-9.1799664E-1,6.2872505E-1,-1.1910493E0,-1.158949E0,1.4419059E-2,5.5289847E-1,-7.407755E-1,7.507056E-1,-6.1070806E-1,1.3886508E0,-4.6220982E-1,-3.857581E-1,-9.76225E-1,-1.1680282E0,4.5268896E-1,1.1512413E-1,-8.430555E-2,1.00307755E-1,-2.3776686E-1,-4.698168E-2,1.01378076E-1,6.1941106E-2,-1.24963336E-1,-1.11229934E-1,4.623973E-2,1.1008477E-1,-1.0518777E-1,1.12361945E-1,-4.587048E-2,-2.4743888E-3,-1.4853297E-1,-1.7010058E-1,-1.04052186E-1,1.0790434E-1,-2.2546975E-1,-9.389514E-2,-1.1625624E-1,-1.1801541E-2,-1.17491916E-1,-1.3993034E-1,1.1430291E-1,-3.8867407E-2,-1.21626176E-1,5.445182E-2,-1.16381936E-1,-1.3117757E-1,1.10363424E-1,9.9511355E-2,-1.23101495E-1,1.8347226E-2,-8.981234E-2,8.813774E-2,-1.08743705E-1,1.2393743E-1,-1.0168089E-1,1.5761979E-1,-1.0165813E-1,-7.010824E-2,2.978654E-2,-7.834836E-2,1.9539152E-3,-1.0755952E-1,9.29855E-3,-1.1893826E-1,-1.01203434E-1,-1.0684114E-1,1.4743166E-1],"categories":[],"categories_nodes":[],"categories_segments":[],"categories_sizes":[],"default_left":[0,0,0,0,0,0,0,0,0,0,0,0,0,0,0,0,0,0,0,0,0,0,0,0,0,0,0,0,0,0,0,0,0,0,0,0,0,0,0,0,0,0,0,0,0,0,0,0,0,0,0,0,0,0,0,0,0,0,0,0,0,0,0,0,0,0,0,0,0,0,0,0,0,0,0,0,0,0,0,0,0,0,0,0,0,0,0,0,0,0,0,0,0,0,0,0,0,0,0,0,0,0,0,0,0,0,0],"id":13,"left_children":[1,3,5,7,9,11,13,15,-1,17,19,21,23,25,27,-1,29,31,33,35,37,39,41,43,45,47,49,51,53,55,57,59,61,63,65,67,69,71,73,75,77,79,81,83,85,87,89,91,93,95,97,99,101,103,105,-1,-1,-1,-1,-1,-1,-1,-1,-1,-1,-1,-1,-1,-1,-1,-1,-1,-1,-1,-1,-1,-1,-1,-1,-1,-1,-1,-1,-1,-1,-1,-1,-1,-1,-1,-1,-1,-1,-1,-1,-1,-1,-1,-1,-1,-1,-1,-1,-1,-1,-1,-1],"loss_changes":[4.5237938E4,2.0921992E3,3.0111387E3,7.641406E1,1.0963854E3,4.007168E2,1.9789688E3,3.4589844E1,0E0,6.917805E2,1.9324219E2,2.8912305E2,6.705454E2,1.1406348E3,4.305498E2,0E0,1.5869141E1,5.500387E2,9.5361145E1,5.190639E1,1.5848022E2,9.3671875E0,2.7976105E2,5.6909668E1,8.347374E2,7.5338525E2,9.837703E2,5.1634863E2,3.0289307E1,6.7265625E0,8.864734E1,4.8052252E2,2.9406638E2,2.777655E1,2.0541813E1,3.5068178E0,1.4578461E1,2.3235703E-1,9.8720825E1,2.0107422E0,3.7641754E1,1.9120755E2,2.7209778E0,2.8992188E1,6.329634E1,4.7125055E2,4.4640833E2,5.091494E2,3.794287E2,1.4048291E2,7.7704224E2,5.894E2,2.6491553E2,5.4506836E0,2.0402325E1,0E0,0E0,0E0,0E0,0E0,0E0,0E0,0E0,0E0,0E0,0E0,0E0,0E0,0E0,0E0,0E0,0E0,0E0,0E0,0E0,0E0,0E0,0E0,0E0,0E0,0E0,0E0,0E0,0E0,0E0,0E0,0E0,0E0,0E0,0E0,0E0,0E0,0E0,0E0,0E0,0E0,0E0,0E0,0E0,0E0,0E0,0E0,0E0,0E0,0E0,0E0,0E0],"parents":[2147483647,0,0,1,1,2,2,3,3,4,4,5,5,6,6,7,7,9,9,10,10,11,11,12,12,13,13,14,14,16,16,17,17,18,18,19,19,20,20,21,21,22,22,23,23,24,24,25,25,26,26,27,27,28,28,29,29,30,30,31,31,32,32,33,33,34,34,35,35,36,36,37,37,38,38,39,39,40,40,41,41,42,42,43,43,44,44,45,45,46,46,47,47,48,48,49,49,50,50,51,51,52,52,53,53,54,54],"right_children":[2,4,6,8,10,12,14,16,-1,18,20,22,24,26,28,-1,30,32,34,36,38,40,42,44,46,48,50,52,54,56,58,60,62,64,66,68,70,72,74,76,78,80,82,84,86,88,90,92,94,96,98,100,102,104,106,-1,-1,-1,-1,-1,-1,-1,-1,-1,-1,-1,-1,-1,-1,-1,-1,-1,-1,-1,-1,-1,-1,-1,-1,-1,-1,-1,-1,-1,-1,-1,-1,-1,-1,-1,-1,-1,-1,-1,-1,-1,-1,-1,-1,-1,-1,-1,-1,-1,-1,-1,-1],"split_conditions":[-1.5853893E0,-1.6640327E0,4.542722E-1,5.685658E-1,1.8561944E0,-2.4443778E-1,-8.460998E-2,-3.9535365E-1,-1.19947396E-1,-1.2396507E-1,5.4893297E-1,2.1170301E0,9.929242E-2,-3.131819E-1,2.617335E-1,-1.1348613E-1,2.2006345E0,2.2449745E-2,3.1055589E0,-2.9619129E0,-2.4450805E-2,1.7537321E0,-3.7775433E-1,2.9915373E0,-8.918333E-1,3.033634E-1,-2.601715E0,1.0261386E-1,6.597453E0,1.7691995E0,1.5790615E-2,-2.39773E-2,-7.0835084E-1,1.6303505E0,-7.323003E-1,-7.4591607E-1,-8.527496E-1,5.9662753E-1,1.437122E0,-1.5128946E0,-1.1058122E0,1.9422952E-2,-3.431057E-1,-4.271832E0,-1.0313042E0,3.096673E-2,-4.2186275E-1,1.7837705E-1,-3.176833E0,-6.7360413E-1,3.5027996E-1,2.6593944E-1,1.4204558E0,1.1320502E0,-7.142954E0,1.1512413E-1,-8.430555E-2,1.00307755E-1,-2.3776686E-1,-4.698168E-2,1.01378076E-1,6.1941106E-2,-1.24963336E-1,-1.11229934E-1,4.623973E-2,1.1008477E-1,-1.0518777E-1,1.12361945E-1,-4.587048E-2,-2.4743888E-3,-1.4853297E-1,-1.7010058E-1,-1.04052186E-1,1.0790434E-1,-2.2546975E-1,-9.389514E-2,-1.1625624E-1,-1.1801541E-2,-1.17491916E-1,-1.3993034E-1,1.1430291E-1,-3.8867407E-2,-1.21626176E-1,5.445182E-2,-1.16381936E-1,-1.3117757E-1,1.10363424E-1,9.9511355E-2,-1.23101495E-1,1.8347226E-2,-8.981234E-2,8.813774E-2,-1.08743705E-1,1.2393743E-1,-1.0168089E-1,1.5761979E-1,-1.0165813E-1,-7.010824E-2,2.978654E-2,-7.834836E-2,1.9539152E-3,-1.0755952E-1,9.29855E-3,-1.1893826E-1,-1.01203434E-1,-1.0684114E-1,1.4743166E-1],"split_indices":[14,12,4,10,4,4,12,11,0,26,18,7,18,14,8,0,17,27,21,7,28,7,26,7,19,0,7,14,4,16,8,27,22,4,13,16,13,10,0,14,10,15,26,23,5,12,8,8,3,25,29,25,3,1,1,0,0,0,0,0,0,0,0,0,0,0,0,0,0,0,0,0,0,0,0,0,0,0,0,0,0,0,0,0,0,0,0,0,0,0,0,0,0,0,0,0,0,0,0,0,0,0,0,0,0,0,0],"split_type":[0,0,0,0,0,0,0,0,0,0,0,0,0,0,0,0,0,0,0,0,0,0,0,0,0,0,0,0,0,0,0,0,0,0,0,0,0,0,0,0,0,0,0,0,0,0,0,0,0,0,0,0,0,0,0,0,0,0,0,0,0,0,0,0,0,0,0,0,0,0,0,0,0,0,0,0,0,0,0,0,0,0,0,0,0,0,0,0,0,0,0,0,0,0,0,0,0,0,0,0,0,0,0,0,0,0,0],"sum_hessian":[5.914692E4,2.4987158E4,3.415976E4,2.1179518E4,3.8076423E3,1.8803725E4,1.5356037E4,2.1166387E4,1.3128991E1,2.1607703E3,1.6468721E3,1.168255E4,7.121176E3,7.2016045E3,8.1544326E3,5.8949695E0,2.1160492E4,1.519858E3,6.4091223E2,6.128187E1,1.5855901E3,1.1344891E4,3.3765945E2,3.4588787E3,3.662297E3,2.6170964E3,4.584508E3,6.1467393E3,2.0076935E3,2.0802168E4,3.5832565E2,1.1004283E3,4.194297E2,6.116454E2,2.9266853E1,1.2657866E1,4.8624004E1,2.3102118E1,1.562488E3,1.1162074E4,1.8281654E2,1.8078705E2,1.5687242E2,3.4170623E3,4.1816288E1,5.948187E2,3.0674783E3,2.1147578E3,5.0233878E2,3.0687463E2,4.2776333E3,3.6552993E3,2.49144E3,1.9965782E3,1.1115295E1,2.0801143E4,1.0245137E0,3.51316E2,7.009642E0,2.9926562E2,8.011627E2,1.1558657E2,3.038431E2,6.0074E2,1.0905349E1,2.474241E1,4.5244427E0,1.1624849E1,1.0330155E0,8.225826E0,4.039818E1,1.5358019E1,7.7440987E0,1.554452E3,8.03602E0,6.658281E1,1.1095491E4,4.4795586E1,1.3802095E2,3.622442E1,1.4456262E2,5.279214E0,1.5159322E2,9.426007E0,3.4076362E3,1.8764673E1,2.3051617E1,4.7701376E2,1.1780498E2,4.46225E2,2.6212534E3,1.9748856E3,1.3987216E2,9.004894E1,4.1228983E2,2.8499677E2,2.1877844E1,3.254807E3,1.0228265E3,1.8444117E3,1.8108875E3,2.2795752E3,2.1186478E2,1.7503466E3,2.4623161E2,4.44755E0,6.6677456E0],"tree_param":{"num_deleted":"0","num_feature":"30","num_nodes":"107","size_leaf_vector":"1"}},{"base_weights":[1.032745E-4,1.003144E0,-7.1664965E-1,1.127961E0,3.2610294E-1,-8.509991E-1,-4.781849E-2,1.1294615E0,-1.1718702E-1,-1.2236579E-1,9.272937E-1,-1.0862411E0,-6.5087974E-1,1.9081277E-1,-8.259519E-1,-1.09948516E-1,1.1301523E0,2.1925794E-1,-9.8483527E-1,-9.024143E-1,9.900351E-1,-1.1126337E0,-2.0457298E-1,-1.6517454E-1,-8.88598E-1,7.949689E-1,-1.8841563E-1,-1.0299507E0,-3.236635E-2,1.1341509E0,8.994426E-1,-9.984676E-1,4.9178687E-1,-1.0678719E0,7.101305E-1,-1.6201657E0,7.4104446E-1,1.0230198E0,-1.6209587E0,-8.8283086E-1,-1.1346866E0,-9.720822E-1,7.4517465E-1,3.435305E-1,-9.485534E-1,-1.0419592E0,-6.0088657E-2,9.4374025E-1,-1.1231894E0,-1.0259386E0,2.7683622E-1,-1.1616443E0,8.9773536E-1,-9.4571006E-1,1.7238842E0,1.13434136E-1,-4.8310462E-2,9.7105466E-2,-2.4971858E-1,-1.2926124E-1,8.201572E-2,7.653849E-2,-1.1075927E-1,-1.1602032E-1,-5.085317E-2,1.0648104E-1,-1.0195164E-1,-1.6718887E-1,5.2864635E-3,1.10132396E-1,-1.100181E-1,1.047323E-1,-1.456179E-1,-1.939665E-1,-1.0191864E-1,-1.14895485E-1,-4.84013E-3,-1.14074826E-1,-7.642012E-2,-1.2182497E-1,-5.917767E-3,-1.3834523E-1,1.1859667E-1,-1.0666104E-1,6.833314E-2,6.71337E-2,-1.10298805E-1,-1.09033816E-1,-2.2578533E-4,-1.0098129E-1,4.8602734E-2,1.0824219E-1,-5.9636362E-2,1.691541E-1,-1.2640743E-1,-1.2440334E-2,-1.2450685E-1,5.696677E-2,-9.722941E-2,-6.703737E-2,-1.19122505E-1,1.4819773E-1,-1.1601659E-1,-1.1236166E-1,1.7139554E-1,2.3207489E-1,-1.2869559E-1],"categories":[],"categories_nodes":[],"categories_segments":[],"categories_sizes":[],"default_left":[0,0,0,0,0,0,0,0,0,0,0,0,0,0,0,0,0,0,0,0,0,0,0,0,0,0,0,0,0,0,0,0,0,0,0,0,0,0,0,0,0,0,0,0,0,0,0,0,0,0,0,0,0,0,0,0,0,0,0,0,0,0,0,0,0,0,0,0,0,0,0,0,0,0,0,0,0,0,0,0,0,0,0,0,0,0,0,0,0,0,0,0,0,0,0,0,0,0,0,0,0,0,0,0,0,0,0],"id":14,"left_children":[1,3,5,7,9,11,13,15,-1,17,19,21,23,25,27,-1,29,31,33,35,37,39,41,43,45,47,49,51,53,55,57,59,61,63,65,67,69,71,73,75,77,79,81,83,85,87,89,91,93,95,97,99,101,103,105,-1,-1,-1,-1,-1,-1,-1,-1,-1,-1,-1,-1,-1,-1,-1,-1,-1,-1,-1,-1,-1,-1,-1,-1,-1,-1,-1,-1,-1,-1,-1,-1,-1,-1,-1,-1,-1,-1,-1,-1,-1,-1,-1,-1,-1,-1,-1,-1,-1,-1,-1,-1],"loss_changes":[3.972342E4,1.9456211E3,2.8956582E3,6.8416016E1,9.669276E2,1.2625918E3,1.00128723E3,3.1164062E1,0E0,6.056138E2,1.7678748E2,2.8676953E2,1.6743267E3,9.4568585E2,2.0484772E2,0E0,1.690039E1,4.89184E2,8.283185E1,6.173857E1,1.2928162E2,5.968457E1,2.6292258E2,1.8999272E3,1.2370967E3,4.5527515E2,9.885576E2,2.5661353E2,4.184116E2,6.4257812E0,8.409555E1,1.4529233E2,5.2767615E2,2.8140259E1,1.8161255E1,3.2065964E0,1.2015403E1,8.973474E1,1.6429176E0,2.3378693E2,2.3658203E1,4.4731537E1,1.5301294E2,1.3858988E3,4.7030127E2,4.1325293E2,7.898222E2,3.162516E2,4.7750275E1,1.7882214E2,5.972524E2,1.2901978E1,7.9800125E1,8.3112595E1,1.6337299E2,0E0,0E0,0E0,0E0,0E0,0E0,0E0,0E0,0E0,0E0,0E0,0E0,0E0,0E0,0E0,0E0,0E0,0E0,0E0,0E0,0E0,0E0,0E0,0E0,0E0,0E0,0E0,0E0,0E0,0E0,0E0,0E0,0E0,0E0,0E0,0E0,0E0,0E0,0E0,0E0,0E0,0E0,0E0,0E0,0E0,0E0,0E0,0E0,0E0,0E0,0E0,0E0],"parents":[2147483647,0,0,1,1,2,2,3,3,4,4,5,5,6,6,7,7,9,9,10,10,11,11,12,12,13,13,14,14,16,16,17,17,18,18,19,19,20,20,21,21,22,22,23,23,24,24,25,25,26,26,27,27,28,28,29,29,30,30,31,31,32,32,33,33,34,34,35,35,36,36,37,37,38,38,39,39,40,40,41,41,42,42,43,43,44,44,45,45,46,46,47,47,48,48,49,49,50,50,51,51,52,52,53,53,54,54],"right_children":[2,4,6,8,10,12,14,16,-1,18,20,22,24,26,28,-1,30,32,34,36,38,40,42,44,46,48,50,52,54,56,58,60,62,64,66,68,70,72,74,76,78,80,82,84,86,88,90,92,94,96,98,100,102,104,106,-1,-1,-1,-1,-1,-1,-1,-1,-1,-1,-1,-1,-1,-1,-1,-1,-1,-1,-1,-1,-1,-1,-1,-1,-1,-1,-1,-1,-1,-1,-1,-1,-1,-1,-1,-1,-1,-1,-1,-1,-1,-1,-1,-1,-1,-1,-1,-1,-1,-1,-1,-1],"split_conditions":[-1.5853893E0,-1.6640327E0,1.5409334E0,5.685658E-1,1.8561944E0,-3.6594678E-2,2.3732114E-1,-3.9535365E-1,-1.1718702E-1,-1.19669E-1,-8.9192516E-1,2.1170301E0,-3.2766056E-1,-3.2324374E-1,1.1053482E0,-1.09948516E-1,2.2006345E0,-3.1148687E-1,3.1055589E0,1.6166362E-1,1.0076915E0,-1.3575356E0,4.316706E-1,-3.8645673E-1,5.091978E-1,1.2097751E0,-1.070316E-1,5.1454716E0,5.344446E-1,1.6794947E0,1.2497206E-1,2.502302E0,-3.363614E-3,1.3864232E0,-7.323003E-1,1.4392501E0,-8.568751E-1,7.7881104E-1,5.189938E-1,-2.7320242E-1,1.7537321E0,-5.785821E-1,-1.4998494E0,-1.5967157E-1,-2.85139E0,5.1408064E-1,9.539884E-1,1.3886483E-1,-1.1698098E0,-2.2417775E-1,4.7584134E-1,-2.359138E0,-9.838126E-1,5.1606995E-1,9.3705766E-2,1.13434136E-1,-4.8310462E-2,9.7105466E-2,-2.4971858E-1,-1.2926124E-1,8.201572E-2,7.653849E-2,-1.1075927E-1,-1.1602032E-1,-5.085317E-2,1.0648104E-1,-1.0195164E-1,-1.6718887E-1,5.2864635E-3,1.10132396E-1,-1.100181E-1,1.047323E-1,-1.456179E-1,-1.939665E-1,-1.0191864E-1,-1.14895485E-1,-4.84013E-3,-1.14074826E-1,-7.642012E-2,-1.2182497E-1,-5.917767E-3,-1.3834523E-1,1.1859667E-1,-1.0666104E-1,6.833314E-2,6.71337E-2,-1.10298805E-1,-1.09033816E-1,-2.2578533E-4,-1.0098129E-1,4.8602734E-2,1.0824219E-1,-5.9636362E-2,1.691541E-1,-1.2640743E-1,-1.2440334E-2,-1.2450685E-1,5.696677E-2,-9.722941E-2,-6.703737E-2,-1.19122505E-1,1.4819773E-1,-1.1601659E-1,-1.1236166E-1,1.7139554E-1,2.3207489E-1,-1.2869559E-1],"split_indices":[14,12,4,10,4,4,8,11,0,26,22,7,14,29,1,0,17,9,21,29,15,13,15,0,29,1,17,4,11,16,24,7,10,11,13,11,15,3,10,4,7,1,1,18,3,21,